{"learner":{"attributes":{"scikit_learn":"{\"_estimator_type\": \"regressor\"}"},"feature_names":["metrics.ctr","metrics.conversions_value","cost_in_pounds","metrics.clicks","metrics.impressions","conversion_rate"],"feature_types":["float","float","float","int","int","float"],"gradient_booster":{"model":{"gbtree_model_param":{"num_parallel_tree":"1","num_trees":"100"},"iteration_indptr":[0,1,2,3,4,5,6,7,8,9,10,11,12,13,14,15,16,17,18,19,20,21,22,23,24,25,26,27,28,29,30,31,32,33,34,35,36,37,38,39,40,41,42,43,44,45,46,47,48,49,50,51,52,53,54,55,56,57,58,59,60,61,62,63,64,65,66,67,68,69,70,71,72,73,74,75,76,77,78,79,80,81,82,83,84,85,86,87,88,89,90,91,92,93,94,95,96,97,98,99,100],"tree_info":[0,0,0,0,0,0,0,0,0,0,0,0,0,0,0,0,0,0,0,0,0,0,0,0,0,0,0,0,0,0,0,0,0,0,0,0,0,0,0,0,0,0,0,0,0,0,0,0,0,0,0,0,0,0,0,0,0,0,0,0,0,0,0,0,0,0,0,0,0,0,0,0,0,0,0,0,0,0,0,0,0,0,0,0,0,0,0,0,0,0,0,0,0,0,0,0,0,0,0,0],"trees":[{"base_weights":[8.07866E-9,-1.1289029E0,9.3916565E1,-1.2561944E0,2.9095644E1,4.2215973E1,3.6905698E2,-1.7577875E0,5.127479E-1,2.0047262E1,1.4122518E1,1.3901573E1,1.0896922E2,2.3119284E1,4.5419872E1,-1.85378E0,-8.6492527E-1,-7.711182E-2,1.5653833E1,1.1194048E-1,2.9484419E1,5.4154286E0,2.576676E1,6.850946E1,1.3952269E2,-1.8549837E0,-8.9539535E-2,-1.1471926E0,-1.8918785E-1,-4.2903468E-1,1.3802428E0,1.2856665E1,6.1717315E0,-1.3173232E0,6.487657E-1,1.6379023E0,3.4273136E0,1.5018104E0,1.0060408E1,7.094652E-1,2.7358844E0,7.134621E1,2.007099E0,3.6570988E0,1.4616076E1,-1.8568565E-1,-1.5051593E-1,-1.482222E-1,-9.1248214E-2,-6.700403E-2,5.833292E-2,-6.3105665E-2,4.8584532E-2,7.59719E-2,7.8033024E-1,8.13436E-1,2.0114954E0,7.5125634E-3,-1.50077E-1,4.580678E-2,2.7492303E-1,2.7613184E-1,1.1046813E0,2.1070988E0,7.4591126E0],"categories":[],"categories_nodes":[],"categories_segments":[],"categories_sizes":[],"default_left":[0,0,0,0,0,0,0,0,0,0,0,0,0,0,0,0,0,0,0,0,0,0,0,0,0,0,0,0,0,0,0,0,0,0,0,0,0,0,0,0,0,0,0,0,0,0,0,0,0,0,0,0,0,0,0,0,0,0,0,0,0,0,0,0,0],"id":0,"left_children":[1,3,5,7,9,11,13,15,17,19,-1,21,23,-1,-1,25,27,29,31,33,35,37,39,41,43,45,-1,47,49,51,53,55,-1,57,-1,-1,-1,59,61,-1,-1,63,-1,-1,-1,-1,-1,-1,-1,-1,-1,-1,-1,-1,-1,-1,-1,-1,-1,-1,-1,-1,-1,-1,-1],"loss_changes":[7.408865E5,2.6602328E4,1.1650885E6,6.102788E3,2.6591953E4,1.3268072E5,4.758625E4,4.5762305E2,1.3576503E4,5.264415E3,0E0,4.9956367E3,1.6401266E4,0E0,0E0,3.9179688E0,9.934848E1,7.514433E2,6.5508203E3,9.9672134E1,6.3104297E2,5.4842993E2,4.301748E2,7.95E1,2.1721719E3,3.6914062E-1,0E0,2.7585175E1,5.7968193E1,2.1840117E2,1.1299851E3,1.7215498E3,0E0,2.4117098E0,0E0,0E0,0E0,2.2176395E1,7.029431E1,0E0,0E0,5.967578E1,0E0,0E0,0E0,0E0,0E0,0E0,0E0,0E0,0E0,0E0,0E0,0E0,0E0,0E0,0E0,0E0,0E0,0E0,0E0,0E0,0E0,0E0,0E0],"parents":[2147483647,0,0,1,1,2,2,3,3,4,4,5,5,6,6,7,7,8,8,9,9,11,11,12,12,15,15,16,16,17,17,18,18,19,19,20,20,21,21,22,22,23,23,24,24,25,25,27,27,28,28,29,29,30,30,31,31,33,33,37,37,38,38,41,41],"right_children":[2,4,6,8,10,12,14,16,18,20,-1,22,24,-1,-1,26,28,30,32,34,36,38,40,42,44,46,-1,48,50,52,54,56,-1,58,-1,-1,-1,60,62,-1,-1,64,-1,-1,-1,-1,-1,-1,-1,-1,-1,-1,-1,-1,-1,-1,-1,-1,-1,-1,-1,-1,-1,-1,-1],"split_conditions":[1.0731708E0,1.87E2,1.22E2,4.6296295E-2,1.346046E-2,2.8E1,1.91E2,1.045976E-2,6.6E1,4.7834285E-2,1.4122518E1,8E0,4.9E1,2.3119284E1,4.5419872E1,1.999E1,4.4E1,2.2E1,4E-1,1.0719755E-2,1.2397325E-1,4E0,1.91E0,6.185567E-2,1.2631578E0,5.3804377E-3,-8.9539535E-2,2.2E1,2.3255814E-2,2.5012845E-1,1.666665E-1,1.666665E-1,6.1717315E0,1.94E2,6.487657E-1,1.6379023E0,3.4273136E0,2E0,1.2631578E0,7.094652E-1,2.7358844E0,1.2631578E0,2.007099E0,3.6570988E0,1.4616076E1,-1.8568565E-1,-1.5051593E-1,-1.482222E-1,-9.1248214E-2,-6.700403E-2,5.833292E-2,-6.3105665E-2,4.8584532E-2,7.59719E-2,7.8033024E-1,8.13436E-1,2.0114954E0,7.5125634E-3,-1.50077E-1,4.580678E-2,2.7492303E-1,2.7613184E-1,1.1046813E0,2.1070988E0,7.4591126E0],"split_indices":[5,3,3,5,0,3,3,5,3,5,0,3,3,0,0,1,3,3,5,0,5,3,2,0,5,5,0,3,5,5,5,5,0,3,0,0,0,3,5,0,0,5,0,0,0,0,0,0,0,0,0,0,0,0,0,0,0,0,0,0,0,0,0,0,0],"split_type":[0,0,0,0,0,0,0,0,0,0,0,0,0,0,0,0,0,0,0,0,0,0,0,0,0,0,0,0,0,0,0,0,0,0,0,0,0,0,0,0,0,0,0,0,0,0,0,0,0,0,0,0,0,0,0,0,0,0,0,0,0,0,0,0,0],"sum_hessian":[6.986E3,6.904E3,8.2E1,6.876E3,2.8E1,7E1,1.2E1,5.357E3,1.519E3,2.7E1,1E0,5E1,2E1,6E0,6E0,4.836E3,5.21E2,1.463E3,5.6E1,9E0,1.8E1,3E1,2E1,1E1,1E1,4.829E3,7E0,3.67E2,1.54E2,1.179E3,2.84E2,5.4E1,2E0,8E0,1E0,6E0,1.2E1,1.7E1,1.3E1,2E0,1.8E1,9E0,1E0,1E0,9E0,4.799E3,3E1,1.49E2,2.18E2,9.5E1,5.9E1,9.66E2,2.13E2,2.6E2,2.4E1,3.4E1,2E1,1E0,7E0,1E1,7E0,2E0,1.1E1,1E0,8E0],"tree_param":{"num_deleted":"0","num_feature":"6","num_nodes":"65","size_leaf_vector":"1"}},{"base_weights":[1.89482E-2,-1.0118333E0,8.5772285E1,-1.1292423E0,2.6865183E1,3.848724E1,3.3742352E2,-1.5275809E0,6.8997777E-1,1.8241516E1,1.3416392E1,1.2612336E1,9.949356E1,2.113763E1,4.152674E1,-1.66849E0,-6.800558E-1,6.286508E-2,1.6209707E1,1.5136656E-1,2.6802568E1,4.9287744E0,2.3354149E1,6.2710633E0,1.2723162E2,-1.6695548E0,-8.1704825E-2,-7.810166E-1,1.5662814E0,-3.7248987E-1,1.4775442E0,1.315777E1,5.7602825E0,-1.2014314E0,6.163274E-1,1.4975107E0,3.1109464E0,1.3694476E0,9.152996E0,9.06778E-1,2.5231445E0,3.4742439E0,1.3300629E1,-1.6712095E-1,-1.3594988E-1,-9.93817E-2,-3.0802576E-2,6.048838E-2,3.3585533E-1,-5.6230452E-2,2.9135857E-2,1.0383283E-1,9.74848E-1,8.5797447E-1,1.8199242E0,-1.4639537E-1,-1.8840237E-2,4.1642528E-2,2.5086725E-1,6.106163E-1,1.2197747E0],"categories":[],"categories_nodes":[],"categories_segments":[],"categories_sizes":[],"default_left":[0,0,0,0,0,0,0,0,0,0,0,0,0,0,0,0,0,0,0,0,0,0,0,0,0,0,0,0,0,0,0,0,0,0,0,0,0,0,0,0,0,0,0,0,0,0,0,0,0,0,0,0,0,0,0,0,0,0,0,0,0],"id":1,"left_children":[1,3,5,7,9,11,13,15,17,19,-1,21,23,-1,-1,25,27,29,31,33,35,37,39,-1,41,43,-1,45,47,49,51,53,-1,55,-1,-1,-1,57,59,-1,-1,-1,-1,-1,-1,-1,-1,-1,-1,-1,-1,-1,-1,-1,-1,-1,-1,-1,-1,-1,-1],"loss_changes":[6.176883E5,2.2630486E4,9.746588E5,4.98458E3,2.4386598E4,1.1082096E5,3.9778375E4,6.7265625E2,1.2028497E4,4.332323E3,0E0,4.0941973E3,1.3447266E4,0E0,0E0,3.0214844E0,1.8401767E2,7.3284064E2,5.305874E3,8.87337E1,5.0198633E2,4.5356244E2,3.344209E2,0E0,1.2540781E3,2.0507812E-1,0E0,7.739761E1,5.827646E1,1.14831245E2,1.00704114E3,9.0553467E2,0E0,2.117671E0,0E0,0E0,0E0,1.8498043E1,5.539441E1,0E0,0E0,0E0,0E0,0E0,0E0,0E0,0E0,0E0,0E0,0E0,0E0,0E0,0E0,0E0,0E0,0E0,0E0,0E0,0E0,0E0,0E0],"parents":[2147483647,0,0,1,1,2,2,3,3,4,4,5,5,6,6,7,7,8,8,9,9,11,11,12,12,15,15,16,16,17,17,18,18,19,19,20,20,21,21,22,22,24,24,25,25,27,27,28,28,29,29,30,30,31,31,33,33,37,37,38,38],"right_children":[2,4,6,8,10,12,14,16,18,20,-1,22,24,-1,-1,26,28,30,32,34,36,38,40,-1,42,44,-1,46,48,50,52,54,-1,56,-1,-1,-1,58,60,-1,-1,-1,-1,-1,-1,-1,-1,-1,-1,-1,-1,-1,-1,-1,-1,-1,-1,-1,-1,-1,-1],"split_conditions":[1.0731708E0,1.87E2,1.22E2,6.451613E-2,1.346046E-2,2.8E1,1.91E2,1.045976E-2,6.6E1,4.7834285E-2,1.3416392E1,8E0,4.9E1,2.113763E1,4.152674E1,1.999E1,9.8E1,1.8E1,4E-1,1.0719755E-2,1.2397325E-1,4E0,1.959678E0,6.2710633E0,1.2631578E0,5.3804377E-3,-8.1704825E-2,3.3E1,3.0665342E-2,2.6293224E-1,2.8174636E-1,1.666665E-1,5.7602825E0,2.652768E-2,6.163274E-1,1.4975107E0,3.1109464E0,2E0,2.4812424E0,9.06778E-1,2.5231445E0,3.4742439E0,1.3300629E1,-1.6712095E-1,-1.3594988E-1,-9.93817E-2,-3.0802576E-2,6.048838E-2,3.3585533E-1,-5.6230452E-2,2.9135857E-2,1.0383283E-1,9.74848E-1,8.5797447E-1,1.8199242E0,-1.4639537E-1,-1.8840237E-2,4.1642528E-2,2.5086725E-1,6.106163E-1,1.2197747E0],"split_indices":[5,3,3,5,0,3,3,5,3,5,0,3,3,0,0,1,3,3,5,0,5,3,2,0,5,5,0,3,5,5,5,5,0,1,0,0,0,3,5,0,0,0,0,0,0,0,0,0,0,0,0,0,0,0,0,0,0,0,0,0,0],"split_type":[0,0,0,0,0,0,0,0,0,0,0,0,0,0,0,0,0,0,0,0,0,0,0,0,0,0,0,0,0,0,0,0,0,0,0,0,0,0,0,0,0,0,0,0,0,0,0,0,0,0,0,0,0,0,0,0,0,0,0,0,0],"sum_hessian":[6.986E3,6.904E3,8.2E1,6.876E3,2.8E1,7E1,1.2E1,5.641E3,1.235E3,2.7E1,1E0,5E1,2E1,6E0,6E0,4.836E3,8.05E2,1.188E3,4.7E1,9E0,1.8E1,3E1,2E1,1E1,1E1,4.829E3,7E0,7.71E2,3.4E1,9.09E2,2.79E2,4.5E1,2E0,8E0,1E0,6E0,1.2E1,1.7E1,1.3E1,3E0,1.7E1,1E0,9E0,4.799E3,3E1,5.31E2,2.4E2,2.3E1,1.1E1,7.07E2,2.02E2,2.66E2,1.3E1,2.5E1,2E1,6E0,2E0,1E1,7E0,8E0,5E0],"tree_param":{"num_deleted":"0","num_feature":"6","num_nodes":"61","size_leaf_vector":"1"}},{"base_weights":[3.4100767E-2,-9.0661705E-1,7.829461E1,-1.0149554E0,2.4815765E1,3.5041313E1,3.085015E2,-1.3543019E0,7.380282E-1,1.6598063E1,1.2745573E1,1.1459981E1,9.064163E1,1.9325834E1,3.7967304E1,-1.5010146E0,-5.785095E-1,1.1426047E-1,1.4922996E1,1.8133906E-1,2.436486E1,4.5043774E0,2.1182062E1,5.700967E1,1.1603345E2,-1.5025692E0,-7.4970685E-2,-6.682582E-1,1.5765413E0,-1.1673796E-1,2.8626E0,1.2002064E1,5.3762636E0,-1.0996478E0,5.85511E-1,1.7468357E0,3.166401E0,1.2487534E0,8.368439E0,6.017156E-1,2.2461677E0,2.9259858E0,6.375837E0,3.3005319E0,1.2103573E1,-1.5041235E-1,-1.2464862E-1,-9.066636E-2,-2.9982392E-2,7.9519495E-2,3.9190418E-1,-3.8942922E-2,7.394762E-2,1.952556E-1,8.6417466E-1,7.7722913E-1,1.6465981E0,8.078945E-3,-1.2573011E-1,3.7856843E-2,2.2891636E-1,2.1701527E-1,9.22064E-1],"categories":[],"categories_nodes":[],"categories_segments":[],"categories_sizes":[],"default_left":[0,0,0,0,0,0,0,0,0,0,0,0,0,0,0,0,0,0,0,0,0,0,0,0,0,0,0,0,0,0,0,0,0,0,0,0,0,0,0,0,0,0,0,0,0,0,0,0,0,0,0,0,0,0,0,0,0,0,0,0,0,0,0],"id":2,"left_children":[1,3,5,7,9,11,13,15,17,19,-1,21,23,-1,-1,25,27,29,31,33,35,37,39,41,43,45,-1,47,49,51,53,55,-1,57,-1,-1,-1,59,61,-1,-1,-1,-1,-1,-1,-1,-1,-1,-1,-1,-1,-1,-1,-1,-1,-1,-1,-1,-1,-1,-1,-1,-1],"loss_changes":[5.144613E5,1.9267484E4,8.156379E5,4.0919126E3,2.2344959E4,9.205145E4,3.32515E4,6.5495605E2,9.872803E3,3.5657334E3,0E0,3.353358E3,1.1318469E4,0E0,0E0,4.5322266E0,1.7860672E2,6.7963666E2,4.68679E3,7.911881E1,4.0331445E2,3.795277E2,2.723545E2,1.9446484E2,5.738125E2,4.8828125E-2,0E0,7.7200134E1,6.460484E1,2.309683E2,4.1964655E2,7.216831E2,0E0,1.7764759E0,0E0,0E0,0E0,1.5429686E1,5.394037E1,0E0,0E0,0E0,0E0,0E0,0E0,0E0,0E0,0E0,0E0,0E0,0E0,0E0,0E0,0E0,0E0,0E0,0E0,0E0,0E0,0E0,0E0,0E0,0E0],"parents":[2147483647,0,0,1,1,2,2,3,3,4,4,5,5,6,6,7,7,8,8,9,9,11,11,12,12,15,15,16,16,17,17,18,18,19,19,20,20,21,21,22,22,23,23,24,24,25,25,27,27,28,28,29,29,30,30,31,31,33,33,37,37,38,38],"right_children":[2,4,6,8,10,12,14,16,18,20,-1,22,24,-1,-1,26,28,30,32,34,36,38,40,42,44,46,-1,48,50,52,54,56,-1,58,-1,-1,-1,60,62,-1,-1,-1,-1,-1,-1,-1,-1,-1,-1,-1,-1,-1,-1,-1,-1,-1,-1,-1,-1,-1,-1,-1,-1],"split_conditions":[1.0731708E0,1.87E2,1.22E2,7.188493E-2,1.346046E-2,2.8E1,1.91E2,1.1111111E-2,6.6E1,4.7834285E-2,1.2745573E1,8E0,4.9E1,1.9325834E1,3.7967304E1,1.999E1,9.3E1,2.8E1,4E-1,1.0719755E-2,1.6293505E-1,4E0,1.91E0,1.5007994E0,1.2631578E0,5.3804377E-3,-7.4970685E-2,2.8E1,4.71968E-2,1.4E1,1.9965565E-1,1.666665E-1,5.3762636E0,1.94E2,5.85511E-1,1.7468357E0,3.166401E0,2E0,1.2631578E0,6.017156E-1,2.2461677E0,2.9259858E0,6.375837E0,3.3005319E0,1.2103573E1,-1.5041235E-1,-1.2464862E-1,-9.066636E-2,-2.9982392E-2,7.9519495E-2,3.9190418E-1,-3.8942922E-2,7.394762E-2,1.952556E-1,8.6417466E-1,7.7722913E-1,1.6465981E0,8.078945E-3,-1.2573011E-1,3.7856843E-2,2.2891636E-1,2.1701527E-1,9.22064E-1],"split_indices":[5,3,3,5,0,3,3,5,3,5,0,3,3,0,0,1,3,3,5,0,5,3,2,5,5,5,0,3,5,3,5,5,0,3,0,0,0,3,5,0,0,0,0,0,0,0,0,0,0,0,0,0,0,0,0,0,0,0,0,0,0,0,0],"split_type":[0,0,0,0,0,0,0,0,0,0,0,0,0,0,0,0,0,0,0,0,0,0,0,0,0,0,0,0,0,0,0,0,0,0,0,0,0,0,0,0,0,0,0,0,0,0,0,0,0,0,0,0,0,0,0,0,0,0,0,0,0,0,0],"sum_hessian":[6.986E3,6.904E3,8.2E1,6.876E3,2.8E1,7E1,1.2E1,5.761E3,1.115E3,2.7E1,1E0,5E1,2E1,6E0,6E0,4.844E3,9.17E2,1.069E3,4.6E1,9E0,1.8E1,3E1,2E1,1E1,1E1,4.833E3,1.1E1,8.81E2,3.6E1,9.87E2,8.2E1,4.4E1,2E0,8E0,1E0,1.1E1,7E0,1.7E1,1.3E1,2E0,1.8E1,3E0,7E0,1E0,9E0,4.799E3,3.4E1,5.34E2,3.47E2,2.8E1,8E0,7.49E2,2.38E2,7.2E1,1E1,2.4E1,2E1,1E0,7E0,1E1,7E0,2E0,1.1E1],"tree_param":{"num_deleted":"0","num_feature":"6","num_nodes":"63","size_leaf_vector":"1"}},{"base_weights":[4.6902895E-2,-8.12042E-1,7.150434E1,-9.1216636E-1,2.2959246E1,3.1945065E1,2.820585E2,-1.1965543E0,8.146817E-1,1.5130438E1,1.21082945E1,1.0397389E1,8.2753944E1,1.6076048E1,3.3777477E1,-1.3413715E0,-4.3503615E-1,3.374538E-1,1.8897667E1,2.9856017E0,2.4052465E1,4.09929E0,1.919947E1,5.2154324E1,1.05830475E2,-1.3506612E0,-7.92581E-1,-5.955335E-1,1.2389905E0,-3.5281755E-2,4.226903E0,1.3995926E1,5.017846E0,-1.0027553E0,9.567524E-1,1.916487E0,3.3924038E0,1.1386988E0,7.612958E0,1.12060375E1,2.2395754E0,2.179682E0,5.6478565E1,3.1355052E0,1.1014252E1,-1.3538283E-1,-1.1438322E-1,-1.1269506E-1,-6.425511E-2,-7.9953395E-2,-2.7318893E-2,8.427826E-2,4.4030577E-1,-3.7715066E-2,8.243777E-2,2.8821287E-1,9.678013E-1,1.0723423E0,1.879144E0,-1.23070315E-1,-1.3662517E-2,3.4415316E-2,2.0888619E-1,4.900458E-1,1.0412881E0,2.4620092E-1,1.2103469E0,1.5418915E0,5.9683657E0],"categories":[],"categories_nodes":[],"categories_segments":[],"categories_sizes":[],"default_left":[0,0,0,0,0,0,0,0,0,0,0,0,0,0,0,0,0,0,0,0,0,0,0,0,0,0,0,0,0,0,0,0,0,0,0,0,0,0,0,0,0,0,0,0,0,0,0,0,0,0,0,0,0,0,0,0,0,0,0,0,0,0,0,0,0,0,0,0,0],"id":3,"left_children":[1,3,5,7,9,11,13,15,17,19,-1,21,23,-1,-1,25,27,29,31,33,35,37,39,41,43,45,47,49,51,53,55,57,-1,59,-1,-1,-1,61,63,65,-1,-1,67,-1,-1,-1,-1,-1,-1,-1,-1,-1,-1,-1,-1,-1,-1,-1,-1,-1,-1,-1,-1,-1,-1,-1,-1,-1,-1],"loss_changes":[4.2890616E5,1.6455434E4,6.823274E5,3.3782334E3,2.0445516E4,7.687131E4,3.3556688E4,6.50626E2,8.390326E3,2.9621733E3,0E0,2.7485513E3,9.309281E3,0E0,0E0,2.422168E1,2.5463745E2,1.3759486E3,3.1309648E3,3.508576E2,1.21822266E2,3.138097E2,2.855664E2,2.1295312E2,7.902344E1,1.6455078E0,3.5399399E0,5.6531097E1,1.0034033E2,2.5511424E2,5.805393E2,1.5943799E2,0E0,1.6087475E0,0E0,0E0,0E0,1.2870178E1,5.5299194E1,3.2978394E1,0E0,0E0,2.6414258E2,0E0,0E0,0E0,0E0,0E0,0E0,0E0,0E0,0E0,0E0,0E0,0E0,0E0,0E0,0E0,0E0,0E0,0E0,0E0,0E0,0E0,0E0,0E0,0E0,0E0,0E0],"parents":[2147483647,0,0,1,1,2,2,3,3,4,4,5,5,6,6,7,7,8,8,9,9,11,11,12,12,15,15,16,16,17,17,18,18,19,19,20,20,21,21,22,22,23,23,24,24,25,25,26,26,27,27,28,28,29,29,30,30,31,31,33,33,37,37,38,38,39,39,42,42],"right_children":[2,4,6,8,10,12,14,16,18,20,-1,22,24,-1,-1,26,28,30,32,34,36,38,40,42,44,46,48,50,52,54,56,58,-1,60,-1,-1,-1,62,64,66,-1,-1,68,-1,-1,-1,-1,-1,-1,-1,-1,-1,-1,-1,-1,-1,-1,-1,-1,-1,-1,-1,-1,-1,-1,-1,-1,-1,-1],"split_conditions":[1.0731708E0,1.87E2,1.22E2,8.5189E-2,1.346046E-2,2.8E1,2.261E1,1.8518519E-2,8.7E1,9.5238E-2,1.21082945E1,8E0,4.9E1,1.6076048E1,3.3777477E1,1.046E1,5.5E1,2.8E1,4E-1,1.1111111E-2,1.8181819E-1,4E0,8.56E2,6.62E0,1.2631578E0,5.3804377E-3,5.1E1,2.4E1,1.47E2,1.2E1,1.9965565E-1,4.042494E2,5.017846E0,2.652768E-2,9.567524E-1,1.916487E0,3.3924038E0,2E0,2.4812424E0,1.2631578E0,2.2395754E0,2.179682E0,1.2631578E0,3.1355052E0,1.1014252E1,-1.3538283E-1,-1.1438322E-1,-1.1269506E-1,-6.425511E-2,-7.9953395E-2,-2.7318893E-2,8.427826E-2,4.4030577E-1,-3.7715066E-2,8.243777E-2,2.8821287E-1,9.678013E-1,1.0723423E0,1.879144E0,-1.23070315E-1,-1.3662517E-2,3.4415316E-2,2.0888619E-1,4.900458E-1,1.0412881E0,2.4620092E-1,1.2103469E0,1.5418915E0,5.9683657E0],"split_indices":[5,3,3,5,0,3,2,5,3,5,0,3,3,0,0,1,3,3,5,5,5,3,4,2,5,5,3,3,3,3,5,1,0,1,0,0,0,3,5,5,0,0,5,0,0,0,0,0,0,0,0,0,0,0,0,0,0,0,0,0,0,0,0,0,0,0,0,0,0],"split_type":[0,0,0,0,0,0,0,0,0,0,0,0,0,0,0,0,0,0,0,0,0,0,0,0,0,0,0,0,0,0,0,0,0,0,0,0,0,0,0,0,0,0,0,0,0,0,0,0,0,0,0,0,0,0,0,0,0,0,0,0,0,0,0,0,0,0,0,0,0],"sum_hessian":[6.986E3,6.904E3,8.2E1,6.876E3,2.8E1,7E1,1.2E1,5.904E3,9.72E2,2.7E1,1E0,5E1,2E1,5E0,7E0,4.96E3,9.44E2,9.48E2,2.4E1,1.2E1,1.5E1,3E1,2E1,1E1,1E1,4.876E3,8.4E1,8.62E2,8.2E1,8.66E2,8.2E1,2.2E1,2E0,8E0,4E0,1.2E1,3E0,1.7E1,1.3E1,7E0,1.3E1,2E0,8E0,1E0,9E0,4.797E3,7.9E1,2.4E1,6E1,5.27E2,3.35E2,7.4E1,8E0,6.2E2,2.46E2,6.7E1,1.5E1,1.5E1,7E0,6E0,2E0,1E1,7E0,8E0,5E0,1E0,6E0,1E0,7E0],"tree_param":{"num_deleted":"0","num_feature":"6","num_nodes":"69","size_leaf_vector":"1"}},{"base_weights":[5.7478316E-2,-7.268555E-1,6.5307686E1,-8.1960315E-1,2.129219E1,2.9163382E1,2.5768753E2,-1.0563976E0,9.0448326E-1,1.3836284E1,1.1502879E1,9.46492E0,7.561377E1,1.8697018E1,3.700591E1,-1.2073205E0,-3.666234E-1,2.2768073E-1,1.3613281E1,-9.176723E-1,1.978375E1,3.7466073E0,1.7455528E1,4.781979E1,9.653377E0,-1.2156464E0,-7.154046E-1,-5.1575184E-1,1.126858E0,-9.451655E-2,2.9011347E0,1.0781453E1,4.683323E0,-1.12521425E-1,-1.2751682E-1,1.0863489E0,2.3751314E0,1.0383457E0,6.961043E0,1.0267503E1,2.031615E0,3.2030244E0,6.03612E0,-1.2184738E-1,-1.0308788E-1,-1.0187633E-1,-5.793494E-2,-7.543878E-2,-2.6215216E-2,3.4767985E-2,2.3684946E-1,-3.7642445E-2,5.5536706E-2,2.2593513E-1,1.5332416E0,7.1300584E-1,1.3745569E0,8.358121E-3,-2.7485644E-2,3.1286646E-2,1.9060865E-1,4.464862E-1,9.5451415E-1,2.3389088E-1,1.106603E0],"categories":[],"categories_nodes":[],"categories_segments":[],"categories_sizes":[],"default_left":[0,0,0,0,0,0,0,0,0,0,0,0,0,0,0,0,0,0,0,0,0,0,0,0,0,0,0,0,0,0,0,0,0,0,0,0,0,0,0,0,0,0,0,0,0,0,0,0,0,0,0,0,0,0,0,0,0,0,0,0,0,0,0,0,0],"id":4,"left_children":[1,3,5,7,9,11,13,15,17,19,-1,21,23,-1,-1,25,27,29,31,33,35,37,39,41,-1,43,45,47,49,51,53,55,-1,-1,57,-1,-1,59,61,63,-1,-1,-1,-1,-1,-1,-1,-1,-1,-1,-1,-1,-1,-1,-1,-1,-1,-1,-1,-1,-1,-1,-1,-1,-1],"loss_changes":[3.5762775E5,1.4118942E4,5.696202E5,2.8085186E3,1.8676277E4,6.4249406E4,3.4116062E4,6.290664E2,7.14462E3,2.4751172E3,0E0,2.264934E3,7.5942188E3,0E0,0E0,1.9449219E1,2.4267845E2,6.8076404E2,3.4461436E3,1.3324299E0,4.49813E2,2.6264355E2,2.2321045E2,2.4486914E2,0E0,1.2915039E0,2.9180336E0,5.965454E1,9.495469E1,1.2955342E2,6.43505E2,3.3491992E2,0E0,0E0,1.1628215E-1,0E0,0E0,1.0735153E1,4.76875E1,2.476715E1,0E0,0E0,0E0,0E0,0E0,0E0,0E0,0E0,0E0,0E0,0E0,0E0,0E0,0E0,0E0,0E0,0E0,0E0,0E0,0E0,0E0,0E0,0E0,0E0,0E0],"parents":[2147483647,0,0,1,1,2,2,3,3,4,4,5,5,6,6,7,7,8,8,9,9,11,11,12,12,15,15,16,16,17,17,18,18,19,19,20,20,21,21,22,22,23,23,25,25,26,26,27,27,28,28,29,29,30,30,31,31,34,34,37,37,38,38,39,39],"right_children":[2,4,6,8,10,12,14,16,18,20,-1,22,24,-1,-1,26,28,30,32,34,36,38,40,42,-1,44,46,48,50,52,54,56,-1,-1,58,-1,-1,60,62,64,-1,-1,-1,-1,-1,-1,-1,-1,-1,-1,-1,-1,-1,-1,-1,-1,-1,-1,-1,-1,-1,-1,-1,-1,-1],"split_conditions":[1.0731708E0,1.87E2,1.22E2,1.00354165E-1,1.346046E-2,2.8E1,1.9168E4,1.8518519E-2,6.6E1,1.1111111E-2,1.1502879E1,8E0,4.9E1,1.8697018E1,3.700591E1,1.046E1,5.2E1,2E1,4E-1,2.652768E-2,1.2397325E-1,4E0,8.56E2,1.8409576E0,9.653377E0,5.3804377E-3,5.1E1,2E1,4.2629592E-2,1E1,5E-1,1.666665E-1,4.683323E0,-1.12521425E-1,9.086778E-3,1.0863489E0,2.3751314E0,2E0,2.4812424E0,1.2631578E0,2.031615E0,3.2030244E0,6.03612E0,-1.2184738E-1,-1.0308788E-1,-1.0187633E-1,-5.793494E-2,-7.543878E-2,-2.6215216E-2,3.4767985E-2,2.3684946E-1,-3.7642445E-2,5.5536706E-2,2.2593513E-1,1.5332416E0,7.1300584E-1,1.3745569E0,8.358121E-3,-2.7485644E-2,3.1286646E-2,1.9060865E-1,4.464862E-1,9.5451415E-1,2.3389088E-1,1.106603E0],"split_indices":[5,3,3,5,0,3,4,5,3,5,0,3,3,0,0,1,3,3,5,1,5,3,4,5,0,5,3,3,5,3,5,5,0,0,0,0,0,3,5,5,0,0,0,0,0,0,0,0,0,0,0,0,0,0,0,0,0,0,0,0,0,0,0,0,0],"split_type":[0,0,0,0,0,0,0,0,0,0,0,0,0,0,0,0,0,0,0,0,0,0,0,0,0,0,0,0,0,0,0,0,0,0,0,0,0,0,0,0,0,0,0,0,0,0,0,0,0,0,0,0,0,0,0,0,0,0,0,0,0,0,0,0,0],"sum_hessian":[6.986E3,6.904E3,8.2E1,6.876E3,2.8E1,7E1,1.2E1,6.046E3,8.3E2,2.7E1,1E0,5E1,2E1,9E0,3E0,4.96E3,1.086E3,7.89E2,4.1E1,8E0,1.9E1,3E1,2E1,1E1,1E1,4.876E3,8.4E1,9.88E2,9.8E1,7.05E2,8.4E1,3.9E1,2E0,6E0,2E0,7E0,1.2E1,1.7E1,1.3E1,7E0,1.3E1,6E0,4E0,4.797E3,7.9E1,2.4E1,6E1,5.08E2,4.8E2,6.1E1,3.7E1,4.92E2,2.13E2,8.1E1,3E0,1.9E1,2E1,1E0,1E0,1E1,7E0,8E0,5E0,1E0,6E0],"tree_param":{"num_deleted":"0","num_feature":"6","num_nodes":"65","size_leaf_vector":"1"}},{"base_weights":[6.643728E-2,-6.50815E-1,5.973584E1,-7.302912E-1,2.125024E1,2.6583487E1,2.3620363E2,-1.0340298E0,4.1507614E-1,1.3029221E1,1.0927735E1,8.616369E0,6.8952034E1,1.7807938E1,3.7059135E1,-1.094894E0,-5.4408944E-1,1.5560515E-3,1.0850792E1,1.508899E-1,1.9458956E1,3.4242978E0,1.5870552E1,4.3877735E1,8.775797E1,-1.09635785E-1,-8.0433035E-1,-6.2308353E-1,8.392353E-1,-2.591517E-1,9.136063E-1,8.786047E0,4.3711014E0,-9.654498E-1,4.540804E-1,1.4151243E0,2.8305676E0,9.4683856E-1,6.3650103E0,9.408314E0,1.842965E0,3.0940628E0,5.8782516E0,2.496061E0,9.154165E0,-9.6935526E-2,-3.4823835E-2,-9.6743815E-2,-4.8313927E-2,4.0504675E-2,1.9520663E-1,-4.9397405E-2,1.7709961E-2,6.9487184E-2,1.1843884E0,5.8344984E-1,1.2679843E0,-1.0287674E-1,-2.6111364E-2,2.8442398E-2,1.7393039E-1,4.0679857E-1,8.749712E-1,2.159915E-1,1.013524E0],"categories":[],"categories_nodes":[],"categories_segments":[],"categories_sizes":[],"default_left":[0,0,0,0,0,0,0,0,0,0,0,0,0,0,0,0,0,0,0,0,0,0,0,0,0,0,0,0,0,0,0,0,0,0,0,0,0,0,0,0,0,0,0,0,0,0,0,0,0,0,0,0,0,0,0,0,0,0,0,0,0,0,0,0,0],"id":5,"left_children":[1,3,5,7,9,11,13,15,17,19,-1,21,23,-1,-1,25,27,29,31,33,35,37,39,41,43,-1,45,47,49,51,53,55,-1,57,-1,-1,-1,59,61,63,-1,-1,-1,-1,-1,-1,-1,-1,-1,-1,-1,-1,-1,-1,-1,-1,-1,-1,-1,-1,-1,-1,-1,-1,-1],"loss_changes":[2.9906862E5,1.2034445E4,4.7929766E5,2.3942761E3,1.6668016E4,5.345398E4,3.555075E4,1.6159473E2,6.227074E3,1.984366E3,0E0,1.8665305E3,6.051836E3,0E0,0E0,1.1757812E0,6.6415436E1,3.3051123E2,3.3475908E3,4.848964E1,3.507334E2,2.1982373E2,1.7389551E2,3.023047E2,3.2871875E2,0E0,1.7698956E0,2.7049362E1,1.5154211E1,1.1082679E2,7.3053595E2,5.351338E2,0E0,8.814907E-2,0E0,0E0,0E0,8.954229E0,4.109436E1,2.0261108E1,0E0,0E0,0E0,0E0,0E0,0E0,0E0,0E0,0E0,0E0,0E0,0E0,0E0,0E0,0E0,0E0,0E0,0E0,0E0,0E0,0E0,0E0,0E0,0E0,0E0],"parents":[2147483647,0,0,1,1,2,2,3,3,4,4,5,5,6,6,7,7,8,8,9,9,11,11,12,12,15,15,16,16,17,17,18,18,19,19,20,20,21,21,22,22,23,23,24,24,26,26,27,27,28,28,29,29,30,30,31,31,33,33,37,37,38,38,39,39],"right_children":[2,4,6,8,10,12,14,16,18,20,-1,22,24,-1,-1,26,28,30,32,34,36,38,40,42,44,-1,46,48,50,52,54,56,-1,58,-1,-1,-1,60,62,64,-1,-1,-1,-1,-1,-1,-1,-1,-1,-1,-1,-1,-1,-1,-1,-1,-1,-1,-1,-1,-1,-1,-1,-1,-1],"split_conditions":[1.0731708E0,1.94E2,1.22E2,5.1282052E-2,1.346046E-2,2.8E1,4.5576E2,1.045976E-2,6.6E1,4.7834285E-2,1.0927735E1,8E0,4.9E1,1.7807938E1,3.7059135E1,6.8965517E-3,9.8E1,2E1,4E-1,1.0719755E-2,2.48E2,4E0,8.56E2,2E0,1.2631578E0,-1.09635785E-1,3.9E1,2E1,3.0665342E-2,1.6860466E-1,4.47687E-1,1.666665E-1,4.3711014E0,2.652768E-2,4.540804E-1,1.4151243E0,2.8305676E0,2E0,2.4812424E0,9.497965E-3,1.842965E0,3.0940628E0,5.8782516E0,2.496061E0,9.154165E0,-9.6935526E-2,-3.4823835E-2,-9.6743815E-2,-4.8313927E-2,4.0504675E-2,1.9520663E-1,-4.9397405E-2,1.7709961E-2,6.9487184E-2,1.1843884E0,5.8344984E-1,1.2679843E0,-1.0287674E-1,-2.6111364E-2,2.8442398E-2,1.7393039E-1,4.0679857E-1,8.749712E-1,2.159915E-1,1.013524E0],"split_indices":[5,3,3,5,0,3,1,5,3,5,0,3,3,0,0,5,3,3,5,0,3,3,4,5,5,0,3,3,5,5,5,5,0,1,0,0,0,3,5,0,0,0,0,0,0,0,0,0,0,0,0,0,0,0,0,0,0,0,0,0,0,0,0,0,0],"split_type":[0,0,0,0,0,0,0,0,0,0,0,0,0,0,0,0,0,0,0,0,0,0,0,0,0,0,0,0,0,0,0,0,0,0,0,0,0,0,0,0,0,0,0,0,0,0,0,0,0,0,0,0,0,0,0,0,0,0,0,0,0,0,0,0,0],"sum_hessian":[6.986E3,6.904E3,8.2E1,6.88E3,2.4E1,7E1,1.2E1,5.438E3,1.442E3,2.3E1,1E0,5E1,2E1,1E1,2E0,4.836E3,6.02E2,1.388E3,5.4E1,8E0,1.5E1,3E1,2E1,1E1,1E1,4.809E3,2.7E1,5.7E2,3.2E1,1.08E3,3.08E2,5.2E1,2E0,7E0,1E0,1.1E1,4E0,1.7E1,1.3E1,7E0,1.3E1,7E0,3E0,1E0,9E0,1.9E1,8E0,1.63E2,4.07E2,2.4E1,8E0,7.02E2,3.78E2,3.03E2,5E0,3.1E1,2.1E1,6E0,1E0,1E1,7E0,8E0,5E0,1E0,6E0],"tree_param":{"num_deleted":"0","num_feature":"6","num_nodes":"65","size_leaf_vector":"1"}},{"base_weights":[7.4512124E-2,-5.824326E-1,5.472667E1,-6.296789E-1,3.2056835E1,2.4279774E1,2.1680382E2,-6.973259E-1,7.499005E0,1.2549044E1,1.0381349E1,7.844078E0,6.3038857E1,1.6189035E1,3.4588528E1,-9.543599E-1,1.4026806E-1,1.1119692E0,1.9259422E1,8.065593E-1,2.702551E0,3.1297438E0,1.4429806E1,4.0305626E1,8.004128E1,-9.8142606E-1,-4.8266464E-1,-7.5527675E-2,5.344148E0,-3.7203583E-1,5.9351006E0,1.5187318E0,4.8314705E0,-7.576343E-2,4.3137637E-1,8.6339766E-1,5.820064E0,5.4866546E-1,1.5615517E0,2.8233325E0,5.4373827E0,3.3900502E0,8.652807E0,-9.847023E-2,-6.0250312E-2,-6.398823E-2,-1.7453399E-2,-2.2339432E-2,7.87798E-2,3.735642E-1,1.275462E0,-8.892744E-2,7.513688E-2,3.10438E-1,6.833064E-1,1.5956698E-2,1.5494987E-1,1.1299223E-1,6.507594E-1],"categories":[],"categories_nodes":[],"categories_segments":[],"categories_sizes":[],"default_left":[0,0,0,0,0,0,0,0,0,0,0,0,0,0,0,0,0,0,0,0,0,0,0,0,0,0,0,0,0,0,0,0,0,0,0,0,0,0,0,0,0,0,0,0,0,0,0,0,0,0,0,0,0,0,0,0,0,0,0],"id":6,"left_children":[1,3,5,7,9,11,13,15,17,19,-1,21,23,-1,-1,25,27,29,31,33,-1,35,37,39,41,43,45,47,49,51,53,-1,-1,-1,-1,55,57,-1,-1,-1,-1,-1,-1,-1,-1,-1,-1,-1,-1,-1,-1,-1,-1,-1,-1,-1,-1,-1,-1],"loss_changes":[2.5088927E5,1.0668273E4,4.0431994E5,3.7972073E3,1.2695377E4,4.4734832E4,3.61525E4,1.4727188E3,4.2600938E3,1.5081095E3,0E0,1.538252E3,4.8908047E3,0E0,0E0,6.634863E1,1.8050247E3,2.74195E2,1.6325527E3,3.6183933E1,0E0,1.839881E2,1.3700684E2,3.330371E2,3.5901562E2,5.550293E0,1.3743187E1,1.9727849E2,7.152197E2,1.8100216E1,1.6645508E0,0E0,0E0,0E0,0E0,8.444931E0,3.7791504E1,0E0,0E0,0E0,0E0,0E0,0E0,0E0,0E0,0E0,0E0,0E0,0E0,0E0,0E0,0E0,0E0,0E0,0E0,0E0,0E0,0E0,0E0],"parents":[2147483647,0,0,1,1,2,2,3,3,4,4,5,5,6,6,7,7,8,8,9,9,11,11,12,12,15,15,16,16,17,17,18,18,19,19,21,21,22,22,23,23,24,24,25,25,26,26,27,27,28,28,29,29,30,30,35,35,36,36],"right_children":[2,4,6,8,10,12,14,16,18,20,-1,22,24,-1,-1,26,28,30,32,34,-1,36,38,40,42,44,46,48,50,52,54,-1,-1,-1,-1,56,58,-1,-1,-1,-1,-1,-1,-1,-1,-1,-1,-1,-1,-1,-1,-1,-1,-1,-1,-1,-1,-1,-1],"split_conditions":[1.0731708E0,2.54E2,1.22E2,1.36E2,1.1560693E-2,2.8E1,4.5576E2,3.916023E-2,9.5238E-2,5.0416748E1,1.0381349E1,8E0,4.9E1,1.6189035E1,3.4588528E1,1.144E1,5.9E1,3.3333335E-2,1.346046E-2,1.0719755E-2,2.702551E0,4E0,1.959678E0,2E0,1.5007994E0,2.9411765E-2,5.5E1,2.5012845E-1,2.1428572E-1,8.064516E-3,2.0495071E2,1.5187318E0,4.8314705E0,-7.576343E-2,4.3137637E-1,2.4812424E0,1.2631578E0,5.4866546E-1,1.5615517E0,2.8233325E0,5.4373827E0,3.3900502E0,8.652807E0,-9.847023E-2,-6.0250312E-2,-6.398823E-2,-1.7453399E-2,-2.2339432E-2,7.87798E-2,3.735642E-1,1.275462E0,-8.892744E-2,7.513688E-2,3.10438E-1,6.833064E-1,1.5956698E-2,1.5494987E-1,1.1299223E-1,6.507594E-1],"split_indices":[5,3,3,3,0,3,1,5,5,1,0,3,3,0,0,1,3,5,0,0,0,3,2,5,5,5,3,5,5,5,1,0,0,0,0,5,5,0,0,0,0,0,0,0,0,0,0,0,0,0,0,0,0,0,0,0,0,0,0],"split_type":[0,0,0,0,0,0,0,0,0,0,0,0,0,0,0,0,0,0,0,0,0,0,0,0,0,0,0,0,0,0,0,0,0,0,0,0,0,0,0,0,0,0,0,0,0,0,0,0,0,0,0,0,0,0,0,0,0,0,0],"sum_hessian":[6.986E3,6.904E3,8.2E1,6.895E3,9E0,7E1,1.2E1,6.839E3,5.6E1,8E0,1E0,5E1,2E1,1E1,2E0,5.233E3,1.606E3,3.7E1,1.9E1,5E0,3E0,3E1,2E1,1E1,1E1,4.948E3,2.85E2,1.543E3,6.3E1,2.9E1,8E0,1.8E1,1E0,4E0,1E0,1.7E1,1.3E1,3E0,1.7E1,7E0,3E0,2E0,8E0,4.904E3,4.4E1,1.88E2,9.7E1,1.318E3,2.25E2,5.3E1,1E1,2E1,9E0,3E0,5E0,9E0,8E0,2E0,1.1E1],"tree_param":{"num_deleted":"0","num_feature":"6","num_nodes":"59","size_leaf_vector":"1"}},{"base_weights":[8.085235E-2,-5.209693E-1,5.0147087E1,-5.654356E-1,3.0195105E1,2.2180649E1,1.9902939E2,-6.2737906E-1,6.8777037E0,1.1633936E1,9.862281E0,7.119374E0,5.770181E1,1.3093902E1,2.817862E1,-8.468543E-1,1.7218058E-1,1.2392907E0,1.8089304E1,7.8517205E-1,2.4998596E1,3.7703547E0,1.4905662E1,3.702604E1,7.313196E1,-8.8537204E-1,-4.6167824E-1,-1.1443282E-2,6.003513E0,-3.3529195E-1,5.8391094E0,1.3994379E0,4.589897E0,-6.970235E-1,4.098075E-1,7.66579E-1,2.8220937E0,7.865527E-1,6.2672586E0,5.929878E-1,1.5830407E0,2.5762908E0,5.0295787E0,3.164047E0,7.8836684E0,-8.876394E-2,-6.2213402E-2,-5.5039644E-2,3.8624875E-2,-2.1846754E-2,8.434076E-2,4.285183E-1,1.24007E0,-8.045816E-2,6.837456E-2,2.8715512E-1,6.700699E-1,-7.6619126E-2,-2.1017624E-2,1.9351823E-2,1.503656E-1,3.1500876E-1,9.0694207E-1],"categories":[],"categories_nodes":[],"categories_segments":[],"categories_sizes":[],"default_left":[0,0,0,0,0,0,0,0,0,0,0,0,0,0,0,0,0,0,0,0,0,0,0,0,0,0,0,0,0,0,0,0,0,0,0,0,0,0,0,0,0,0,0,0,0,0,0,0,0,0,0,0,0,0,0,0,0,0,0,0,0,0,0],"id":7,"left_children":[1,3,5,7,9,11,13,15,17,19,-1,21,23,-1,-1,25,27,29,31,33,35,37,39,41,43,45,47,49,51,53,55,-1,-1,57,-1,-1,-1,59,61,-1,-1,-1,-1,-1,-1,-1,-1,-1,-1,-1,-1,-1,-1,-1,-1,-1,-1,-1,-1,-1,-1,-1,-1],"loss_changes":[2.1055102E5,9.448136E3,3.4117312E5,3.1837434E3,1.1553611E4,3.757377E4,3.63575E4,1.2004531E3,3.5808735E3,1.2852821E3,0E0,1.2736982E3,3.9918516E3,0E0,0E0,7.92168E1,1.5783861E3,2.8442682E2,1.5213633E3,3.2318676E1,7.072998E0,2.707304E2,3.063208E1,3.4828125E2,1.0924219E2,2.3588867E0,3.7073616E1,2.5325833E2,4.415221E2,1.4896842E1,6.326721E0,0E0,0E0,7.3354244E-3,0E0,0E0,0E0,7.363821E0,1.4612683E2,0E0,0E0,0E0,0E0,0E0,0E0,0E0,0E0,0E0,0E0,0E0,0E0,0E0,0E0,0E0,0E0,0E0,0E0,0E0,0E0,0E0,0E0,0E0,0E0],"parents":[2147483647,0,0,1,1,2,2,3,3,4,4,5,5,6,6,7,7,8,8,9,9,11,11,12,12,15,15,16,16,17,17,18,18,19,19,20,20,21,21,22,22,23,23,24,24,25,25,26,26,27,27,28,28,29,29,30,30,33,33,37,37,38,38],"right_children":[2,4,6,8,10,12,14,16,18,20,-1,22,24,-1,-1,26,28,30,32,34,36,38,40,42,44,46,48,50,52,54,56,-1,-1,58,-1,-1,-1,60,62,-1,-1,-1,-1,-1,-1,-1,-1,-1,-1,-1,-1,-1,-1,-1,-1,-1,-1,-1,-1,-1,-1,-1,-1],"split_conditions":[1.0731708E0,2.54E2,1.22E2,1.36E2,1.1560693E-2,2.8E1,3.615505E2,4.7834285E-2,1.0252849E-1,5.0416748E1,9.862281E0,1E1,4.9E1,1.3093902E1,2.817862E1,1.4489445E-2,6.5E1,3.3333335E-2,1.346046E-2,1.0719755E-2,9.646128E-3,4E0,8.17E2,2E0,1.5007994E0,1.046E1,7E1,2.2E1,2.2558956E-1,8.064516E-3,5.7557043E-2,1.3994379E0,4.589897E0,2.652768E-2,4.098075E-1,7.66579E-1,2.8220937E0,2E0,2.4812424E0,5.929878E-1,1.5830407E0,2.5762908E0,5.0295787E0,3.164047E0,7.8836684E0,-8.876394E-2,-6.2213402E-2,-5.5039644E-2,3.8624875E-2,-2.1846754E-2,8.434076E-2,4.285183E-1,1.24007E0,-8.045816E-2,6.837456E-2,2.8715512E-1,6.700699E-1,-7.6619126E-2,-2.1017624E-2,1.9351823E-2,1.503656E-1,3.1500876E-1,9.0694207E-1],"split_indices":[5,3,3,3,0,3,1,5,5,1,0,3,3,0,0,5,3,5,0,0,0,3,4,5,5,1,3,3,5,5,5,0,0,1,0,0,0,3,5,0,0,0,0,0,0,0,0,0,0,0,0,0,0,0,0,0,0,0,0,0,0,0,0],"split_type":[0,0,0,0,0,0,0,0,0,0,0,0,0,0,0,0,0,0,0,0,0,0,0,0,0,0,0,0,0,0,0,0,0,0,0,0,0,0,0,0,0,0,0,0,0,0,0,0,0,0,0,0,0,0,0,0,0,0,0,0,0,0,0],"sum_hessian":[6.986E3,6.904E3,8.2E1,6.895E3,9E0,7E1,1.2E1,6.839E3,5.6E1,8E0,1E0,5E1,2E1,8E0,4E0,5.366E3,1.473E3,3.8E1,1.8E1,5E0,3E0,3.6E1,1.4E1,1E1,1E1,4.877E3,4.89E2,1.429E3,4.4E1,2.9E1,9E0,1.7E1,1E0,4E0,1E0,1E0,2E0,1.7E1,1.9E1,2E0,1.2E1,7E0,3E0,2E0,8E0,4.833E3,4.4E1,4.43E2,4.6E1,1.151E3,2.78E2,3.6E1,8E0,2E1,9E0,3E0,6E0,3E0,1E0,1E1,7E0,1E1,9E0],"tree_param":{"num_deleted":"0","num_feature":"6","num_nodes":"63","size_leaf_vector":"1"}},{"base_weights":[8.5040644E-2,-4.016703E-1,5.1922195E1,-4.6279275E-1,4.6605366E1,2.6901194E1,2.2683417E2,-5.021315E-1,1.46384E1,8.716802E0,1.1947689E1,6.7935266E0,6.7817276E1,1.5042531E1,3.040405E1,-5.6441253E-1,6.726759E0,6.51904E0,3.4444928E0,1.0994139E0,1.8506848E0,2.8434355E0,1.3187449E1,4.75227E1,9.581902E0,-7.0774734E-1,4.8292944E-1,4.4449425E0,3.69905E1,1.7098074E0,1.1084014E0,-5.7231832E-2,3.8931713E-1,7.885516E-1,5.5738635E0,7.773744E0,1.5932837E0,1.1288118E0,4.960157E0,-7.919887E-2,-2.9621517E-2,6.3570323E-3,5.220113E-1,1.4073217E-2,1.1090506E0,1.1345443E0,4.175704E0,1.4048219E-2,2.6233062E-1,1.7592575E-2,1.7802738E-1,6.102385E-1,2.1303454E-1,9.026961E-1,3.0938026E-1],"categories":[],"categories_nodes":[],"categories_segments":[],"categories_sizes":[],"default_left":[0,0,0,0,0,0,0,0,0,0,0,0,0,0,0,0,0,0,0,0,0,0,0,0,0,0,0,0,0,0,0,0,0,0,0,0,0,0,0,0,0,0,0,0,0,0,0,0,0,0,0,0,0,0,0],"id":8,"left_children":[1,3,5,7,9,11,13,15,17,19,-1,21,23,-1,-1,25,27,29,-1,31,-1,33,35,37,-1,39,41,43,45,47,-1,-1,-1,49,51,53,-1,-1,-1,-1,-1,-1,-1,-1,-1,-1,-1,-1,-1,-1,-1,-1,-1,-1,-1],"loss_changes":[1.7630084E5,1.9912625E4,2.7836856E5,4.115289E3,2.380752E4,4.7257438E4,1.4585938E3,3.109434E3,2.670146E3,5.0167535E2,0E0,9.727656E2,6.2438047E3,0E0,0E0,1.0271663E3,3.909901E3,2.884048E2,0E0,2.5580204E1,0E0,1.4148325E2,9.908276E1,4.1934375E2,0E0,2.083628E2,1.6366108E3,1.6002578E3,1.5200684E1,1.1100084E1,0E0,0E0,0E0,9.407679E0,7.0195007E0,1.3127228E1,0E0,0E0,0E0,0E0,0E0,0E0,0E0,0E0,0E0,0E0,0E0,0E0,0E0,0E0,0E0,0E0,0E0,0E0,0E0],"parents":[2147483647,0,0,1,1,2,2,3,3,4,4,5,5,6,6,7,7,8,8,9,9,11,11,12,12,15,15,16,16,17,17,19,19,21,21,22,22,23,23,25,25,26,26,27,27,28,28,29,29,33,33,34,34,35,35],"right_children":[2,4,6,8,10,12,14,16,18,20,-1,22,24,-1,-1,26,28,30,-1,32,-1,34,36,38,-1,40,42,44,46,48,-1,-1,-1,50,52,54,-1,-1,-1,-1,-1,-1,-1,-1,-1,-1,-1,-1,-1,-1,-1,-1,-1,-1,-1],"split_conditions":[1.5007994E0,2.68E2,1.45E2,1.0731708E0,1.1560693E-2,2.6E1,4.5576E2,1.36E2,4.2E1,5.0416748E1,1.1947689E1,8E0,1.3854617E2,1.5042531E1,3.040405E1,1.00354165E-1,2.0620364E-1,2.99E0,3.4444928E0,1.0719755E-2,1.8506848E0,4E0,2.26E0,1.0948905E-2,9.581902E0,2.3255814E-2,2.9E1,6.601187E-2,9.698128E-3,5E0,1.1084014E0,-5.7231832E-2,3.8931713E-1,2E0,2.652768E-2,2.19E0,1.5932837E0,1.1288118E0,4.960157E0,-7.919887E-2,-2.9621517E-2,6.3570323E-3,5.220113E-1,1.4073217E-2,1.1090506E0,1.1345443E0,4.175704E0,1.4048219E-2,2.6233062E-1,1.7592575E-2,1.7802738E-1,6.102385E-1,2.1303454E-1,9.026961E-1,3.0938026E-1],"split_indices":[5,3,3,5,0,3,1,3,3,1,0,3,1,0,0,5,5,2,0,0,0,3,2,0,0,5,3,5,0,3,0,0,0,3,1,2,0,0,0,0,0,0,0,0,0,0,0,0,0,0,0,0,0,0,0],"split_type":[0,0,0,0,0,0,0,0,0,0,0,0,0,0,0,0,0,0,0,0,0,0,0,0,0,0,0,0,0,0,0,0,0,0,0,0,0,0,0,0,0,0,0,0,0,0,0,0,0,0,0,0,0,0,0],"sum_hessian":[6.986E3,6.922E3,6.4E1,6.914E3,8E0,5.7E1,7E0,6.897E3,1.7E1,6E0,2E0,3.9E1,1.8E1,5E0,2E0,6.839E3,5.8E1,1.3E1,4E0,4E0,2E0,2.5E1,1.4E1,1.2E1,6E0,6.016E3,8.23E2,5.5E1,3E0,7E0,6E0,3E0,1E0,1.5E1,1E1,6E0,8E0,1E0,1.1E1,4.993E3,1.023E3,7.57E2,6.6E1,3.4E1,2.1E1,1E0,2E0,3E0,4E0,1E1,5E0,8E0,2E0,4E0,2E0],"tree_param":{"num_deleted":"0","num_feature":"6","num_nodes":"55","size_leaf_vector":"1"}},{"base_weights":[8.9525625E-2,-4.1679153E-1,4.2210373E1,-4.5583063E-1,2.654626E1,2.3950571E1,2.1040219E2,-5.0790995E-1,5.801683E0,1.0002995E1,8.771783E0,1.0476797E1,7.3822426E1,1.3865069E1,2.8377111E1,-6.206864E-1,6.027872E-1,1.9950807E0,1.85321E1,7.200676E-1,2.1426636E1,5.336374E0,2.9046331E1,4.80564E0,1.0008497E1,-7.108893E-1,-2.3395863E-1,1.7583537E-1,6.0286784E0,-3.157696E-1,6.203233E0,1.315708E0,4.1516166E0,-6.15324E-1,3.698513E-1,6.357158E-1,2.4330745E0,2.355252E0,9.919448E0,2.0638835E0,4.280349E0,-7.1848296E-2,-3.67557E-2,-3.6878116E-2,9.23252E-2,-4.2644437E-2,1.03978954E-1,4.7514328E-1,1.5551804E0,-5.936147E-2,1.1921787E-1,2.9758534E-1,7.031038E-1,-6.836293E-2,-1.7105151E-2,6.565396E-2,4.3710786E-1,2.3764896E-1,1.0667061E0],"categories":[],"categories_nodes":[],"categories_segments":[],"categories_sizes":[],"default_left":[0,0,0,0,0,0,0,0,0,0,0,0,0,0,0,0,0,0,0,0,0,0,0,0,0,0,0,0,0,0,0,0,0,0,0,0,0,0,0,0,0,0,0,0,0,0,0,0,0,0,0,0,0,0,0,0,0,0,0],"id":9,"left_children":[1,3,5,7,9,11,13,15,17,19,-1,21,23,-1,-1,25,27,29,31,33,35,37,39,-1,-1,41,43,45,47,49,51,-1,-1,53,-1,-1,-1,55,57,-1,-1,-1,-1,-1,-1,-1,-1,-1,-1,-1,-1,-1,-1,-1,-1,-1,-1,-1,-1],"loss_changes":[1.4902589E5,7.280397E3,2.4986614E5,2.2502632E3,9.242334E3,5.02957E4,2.7695938E3,8.5715625E2,2.7252266E3,9.3897485E2,0E0,5.667769E3,6.0171797E3,0E0,0E0,2.1646289E2,1.460711E3,4.3955725E2,1.0597856E3,2.6140127E1,2.037915E1,6.461095E2,6.2020703E2,0E0,0E0,1.2862793E1,1.8381772E2,3.053639E2,4.8562134E2,1.3276978E1,2.1822876E1,0E0,0E0,3.4794927E-2,0E0,0E0,0E0,1.0328381E2,8.1795166E1,0E0,0E0,0E0,0E0,0E0,0E0,0E0,0E0,0E0,0E0,0E0,0E0,0E0,0E0,0E0,0E0,0E0,0E0,0E0,0E0],"parents":[2147483647,0,0,1,1,2,2,3,3,4,4,5,5,6,6,7,7,8,8,9,9,11,11,12,12,15,15,16,16,17,17,18,18,19,19,20,20,21,21,22,22,25,25,26,26,27,27,28,28,29,29,30,30,33,33,37,37,38,38],"right_children":[2,4,6,8,10,12,14,16,18,20,-1,22,24,-1,-1,26,28,30,32,34,36,38,40,-1,-1,42,44,46,48,50,52,-1,-1,54,-1,-1,-1,56,58,-1,-1,-1,-1,-1,-1,-1,-1,-1,-1,-1,-1,-1,-1,-1,-1,-1,-1,-1,-1],"split_conditions":[1.0731708E0,2.54E2,1.81E2,1.36E2,1.1560693E-2,4.9E1,4.5576E2,1.267276E-1,1.3333334E-1,5.0416748E1,8.771783E0,2.4E1,1.9657596E2,1.3865069E1,2.8377111E1,2.631579E-2,2.9E1,3.3333335E-2,1.346046E-2,1.0719755E-2,9.646128E-3,8E0,2E0,4.80564E0,1.0008497E1,1.858E1,4E1,8E0,3.3333334E-1,1.4489445E-2,6.601187E-2,1.315708E0,4.1516166E0,2.652768E-2,3.698513E-1,6.357158E-1,2.4330745E0,4E0,1.2631578E0,2.0638835E0,4.280349E0,-7.1848296E-2,-3.67557E-2,-3.6878116E-2,9.23252E-2,-4.2644437E-2,1.03978954E-1,4.7514328E-1,1.5551804E0,-5.936147E-2,1.1921787E-1,2.9758534E-1,7.031038E-1,-6.836293E-2,-1.7105151E-2,6.565396E-2,4.3710786E-1,2.3764896E-1,1.0667061E0],"split_indices":[5,3,3,3,0,3,1,5,5,1,0,3,1,0,0,5,3,5,0,0,0,3,5,0,0,1,3,3,5,5,5,0,0,1,0,0,0,3,5,0,0,0,0,0,0,0,0,0,0,0,0,0,0,0,0,0,0,0,0],"split_type":[0,0,0,0,0,0,0,0,0,0,0,0,0,0,0,0,0,0,0,0,0,0,0,0,0,0,0,0,0,0,0,0,0,0,0,0,0,0,0,0,0,0,0,0,0,0,0,0,0,0,0,0,0,0,0,0,0,0,0],"sum_hessian":[6.986E3,6.904E3,8.2E1,6.895E3,9E0,7.5E1,7E0,6.839E3,5.6E1,8E0,1E0,6E1,1.5E1,5E0,2E0,6.209E3,6.3E2,4.4E1,1.2E1,5E0,3E0,4.8E1,1.2E1,9E0,6E0,5.034E3,1.175E3,5.85E2,4.5E1,2.9E1,1.5E1,1.1E1,1E0,4E0,1E0,1E0,2E0,3E1,1.8E1,9E0,3E0,4.924E3,1.1E2,1.053E3,1.22E2,3.45E2,2.4E2,4.1E1,4E0,2.5E1,4E0,4E0,1.1E1,3E0,1E0,1.7E1,1.3E1,2E0,1.6E1],"tree_param":{"num_deleted":"0","num_feature":"6","num_nodes":"59","size_leaf_vector":"1"}},{"base_weights":[9.286716E-2,-3.1923217E-1,4.3983185E1,-3.724883E-1,4.0634697E1,2.2456509E1,1.945537E2,-4.04456E-1,1.1898936E1,7.6876874E0,1.0396615E1,5.6776066E0,5.6598595E1,1.2697841E1,2.6485306E1,-4.5682094E-1,5.6731834E0,5.1582127E0,2.8393176E0,1.0126855E0,1.6250128E0,3.1378236E0,1.2983172E1,3.9767673E1,7.9770503E0,-5.5862635E-1,5.458233E-1,3.645396E0,3.2643913E1,1.3336327E0,8.7922746E-1,-4.9093667E-2,3.5135874E-1,6.60372E-1,5.419161E0,2.7412447E-1,1.3816582E0,9.6917707E-1,4.146635E0,-6.136165E-2,-3.5741352E-3,1.5835647E-2,5.469948E-1,1.2378065E-2,9.082266E-1,1.0120316E0,3.677834E0,-1.2158037E-3,2.1435387E-1,1.0024693E-2,1.577206E-1,2.4837795E-1,6.9320124E-1],"categories":[],"categories_nodes":[],"categories_segments":[],"categories_sizes":[],"default_left":[0,0,0,0,0,0,0,0,0,0,0,0,0,0,0,0,0,0,0,0,0,0,0,0,0,0,0,0,0,0,0,0,0,0,0,0,0,0,0,0,0,0,0,0,0,0,0,0,0,0,0,0,0],"id":10,"left_children":[1,3,5,7,9,11,13,15,17,19,-1,21,23,-1,-1,25,27,29,-1,31,-1,33,35,37,-1,39,41,43,45,47,-1,-1,-1,49,51,-1,-1,-1,-1,-1,-1,-1,-1,-1,-1,-1,-1,-1,-1,-1,-1,-1,-1],"loss_changes":[1.263891E5,1.5114527E4,2.0631438E5,2.7174922E3,1.797998E4,3.290493E4,4.373375E3,2.1979165E3,1.8548379E3,3.8362387E2,0E0,7.014431E2,4.237797E3,0E0,0E0,6.984955E2,3.1077637E3,1.82857E2,0E0,2.0527004E1,0E0,1.7163034E2,4.7482544E1,2.622793E2,0E0,1.7853735E2,1.2030406E3,1.0710834E3,2.8027344E-1,8.745772E0,0E0,0E0,0E0,8.0585575E0,5.3835144E1,0E0,0E0,0E0,0E0,0E0,0E0,0E0,0E0,0E0,0E0,0E0,0E0,0E0,0E0,0E0,0E0,0E0,0E0],"parents":[2147483647,0,0,1,1,2,2,3,3,4,4,5,5,6,6,7,7,8,8,9,9,11,11,12,12,15,15,16,16,17,17,19,19,21,21,22,22,23,23,25,25,26,26,27,27,28,28,29,29,33,33,34,34],"right_children":[2,4,6,8,10,12,14,16,18,20,-1,22,24,-1,-1,26,28,30,-1,32,-1,34,36,38,-1,40,42,44,46,48,-1,-1,-1,50,52,-1,-1,-1,-1,-1,-1,-1,-1,-1,-1,-1,-1,-1,-1,-1,-1,-1,-1],"split_conditions":[1.5007994E0,2.68E2,1.45E2,1.0731708E0,1.1560693E-2,2.6E1,4.5576E2,1.36E2,4.2E1,5.0416748E1,1.0396615E1,1E1,1.3854617E2,1.2697841E1,2.6485306E1,1.267276E-1,2.0620364E-1,2.99E0,2.8393176E0,1.0719755E-2,1.6250128E0,4E0,1.514503E0,1.0948905E-2,7.9770503E0,3.048E1,2.9E1,6.601187E-2,9.698128E-3,5E0,8.7922746E-1,-4.9093667E-2,3.5135874E-1,2E0,2.4812424E0,2.7412447E-1,1.3816582E0,9.6917707E-1,4.146635E0,-6.136165E-2,-3.5741352E-3,1.5835647E-2,5.469948E-1,1.2378065E-2,9.082266E-1,1.0120316E0,3.677834E0,-1.2158037E-3,2.1435387E-1,1.0024693E-2,1.577206E-1,2.4837795E-1,6.9320124E-1],"split_indices":[5,3,3,5,0,3,1,3,3,1,0,3,1,0,0,5,5,2,0,0,0,3,2,0,0,1,3,5,0,3,0,0,0,3,5,0,0,0,0,0,0,0,0,0,0,0,0,0,0,0,0,0,0],"split_type":[0,0,0,0,0,0,0,0,0,0,0,0,0,0,0,0,0,0,0,0,0,0,0,0,0,0,0,0,0,0,0,0,0,0,0,0,0,0,0,0,0,0,0,0,0,0,0,0,0,0,0,0,0],"sum_hessian":[6.986E3,6.922E3,6.4E1,6.914E3,8E0,5.7E1,7E0,6.897E3,1.7E1,6E0,2E0,3.9E1,1.8E1,5E0,2E0,6.839E3,5.8E1,1.3E1,4E0,4E0,2E0,3E1,9E0,1.2E1,6E0,6.209E3,6.3E2,5.5E1,3E0,7E0,6E0,3E0,1E0,1.5E1,1.5E1,1E0,8E0,1E0,1.1E1,5.618E3,5.91E2,5.85E2,4.5E1,3.4E1,2.1E1,1E0,2E0,3E0,4E0,1E1,5E0,6E0,9E0],"tree_param":{"num_deleted":"0","num_feature":"6","num_nodes":"53","size_leaf_vector":"1"}},{"base_weights":[9.46589E-2,-1.10984154E-1,7.551738E1,-3.409283E-1,2.5934837E1,7.514816E0,1.9101967E1,-3.703088E-1,1.0927469E1,9.361827E0,7.613461E1,9.5143074E-1,1.7825947E1,-4.1106603E-1,4.8966722E0,4.720418E0,2.612172E0,4.714985E0,2.845794E1,4.170707E0,9.445219E1,-6.442336E-1,4.357504E-1,5.226793E-1,1.9669037E0,-4.9472624E-1,5.9204876E-1,3.2371006E0,3.1477163E1,1.2269115E0,8.0386513E-1,1.7065212E0,8.507907E0,1.8364743E0,3.6483247E0,2.625943E0,9.969386E0,-7.0562184E-2,-1.3795209E-2,-5.791955E-2,-1.6207194E-2,5.830512E-3,4.9070048E-1,5.499171E-2,8.57912E-1,9.6143E-1,3.7601445E0,-1.1246204E-3,1.9720556E-1,6.0481884E-2,3.696611E-1,5.715533E-1,1.0934886E0],"categories":[],"categories_nodes":[],"categories_segments":[],"categories_sizes":[],"default_left":[0,0,0,0,0,0,0,0,0,0,0,0,0,0,0,0,0,0,0,0,0,0,0,0,0,0,0,0,0,0,0,0,0,0,0,0,0,0,0,0,0,0,0,0,0,0,0,0,0,0,0,0,0],"id":11,"left_children":[1,3,5,7,9,11,-1,13,15,17,19,21,23,25,27,29,-1,31,33,-1,35,37,-1,-1,-1,39,41,43,45,47,-1,49,51,-1,-1,-1,-1,-1,-1,-1,-1,-1,-1,-1,-1,-1,-1,-1,-1,-1,-1,-1,-1],"loss_changes":[1.0837787E5,4.174677E4,1.477991E5,2.2914153E3,5.003689E4,8.628268E2,0E0,1.4815024E3,1.5743015E3,4.036442E3,5.5201094E3,5.1721794E1,1.3300903E1,5.7431104E2,2.2360532E3,1.5242905E2,0E0,4.3050488E2,5.9003418E1,0E0,5.9909375E2,1.2021589E-1,0E0,0E0,0E0,1.7732373E2,1.2134374E3,7.273864E2,4.017163E1,7.4030237E0,0E0,4.8191406E1,5.2710938E1,0E0,0E0,0E0,0E0,0E0,0E0,0E0,0E0,0E0,0E0,0E0,0E0,0E0,0E0,0E0,0E0,0E0,0E0,0E0,0E0],"parents":[2147483647,0,0,1,1,2,2,3,3,4,4,5,5,7,7,8,8,9,9,10,10,11,11,12,12,13,13,14,14,15,15,17,17,18,18,20,20,21,21,25,25,26,26,27,27,28,28,29,29,31,31,32,32],"right_children":[2,4,6,8,10,12,-1,14,16,18,20,22,24,26,28,30,-1,32,34,-1,36,38,-1,-1,-1,40,42,44,46,48,-1,50,52,-1,-1,-1,-1,-1,-1,-1,-1,-1,-1,-1,-1,-1,-1,-1,-1,-1,-1,-1,-1],"split_conditions":[2.36E2,1.5007994E0,2.5E-1,1.0731708E0,4.9E1,8.5189E-2,1.9101967E1,1.36E2,4.2E1,2.4E1,1.4378E2,3.1375E-3,9.646128E-3,1.4814816E-1,2.0620364E-1,2.99E0,2.612172E0,7E0,2E0,4.170707E0,8.136696E-3,2.652768E-2,4.357504E-1,5.226793E-1,1.9669037E0,2.631579E-2,2E1,9.5238E-2,9.698128E-3,5E0,8.0386513E-1,4E0,2.26E0,1.8364743E0,3.6483247E0,2.625943E0,9.969386E0,-7.0562184E-2,-1.3795209E-2,-5.791955E-2,-1.6207194E-2,5.830512E-3,4.9070048E-1,5.499171E-2,8.57912E-1,9.6143E-1,3.7601445E0,-1.1246204E-3,1.9720556E-1,6.0481884E-2,3.696611E-1,5.715533E-1,1.0934886E0],"split_indices":[3,5,5,5,3,5,0,3,3,3,1,5,0,5,5,2,0,3,5,0,0,1,0,0,0,5,3,5,0,3,0,3,2,0,0,0,0,0,0,0,0,0,0,0,0,0,0,0,0,0,0,0,0],"split_type":[0,0,0,0,0,0,0,0,0,0,0,0,0,0,0,0,0,0,0,0,0,0,0,0,0,0,0,0,0,0,0,0,0,0,0,0,0,0,0,0,0,0,0,0,0,0,0,0,0,0,0,0,0],"sum_hessian":[6.986E3,6.968E3,1.8E1,6.908E3,6E1,1.2E1,6E0,6.891E3,1.7E1,4.6E1,1.4E1,8E0,4E0,6.839E3,5.2E1,1.3E1,4E0,3.8E1,8E0,6E0,8E0,6E0,2E0,1E0,3E0,6.313E3,5.26E2,5E1,2E0,7E0,6E0,2.2E1,1.6E1,5E0,3E0,1E0,7E0,5E0,1E0,5.034E3,1.279E3,4.69E2,5.7E1,3.4E1,1.6E1,1E0,1E0,3E0,4E0,1.5E1,7E0,9E0,7E0],"tree_param":{"num_deleted":"0","num_feature":"6","num_nodes":"53","size_leaf_vector":"1"}},{"base_weights":[9.320189E-2,-9.500483E-2,6.912054E1,-3.05436E-1,2.3740469E1,6.981871E0,1.7464656E2,-3.3239907E-1,1.0035396E1,8.586921E0,6.9638885E1,8.9533144E-1,1.6541267E1,1.0382826E1,2.3446156E1,-3.6989766E-1,4.5133157E0,4.319801E0,2.4031982E0,4.297209E0,2.6221567E1,3.813218E1,8.640645E1,-5.9186125E-1,4.0670037E-1,4.965454E-1,1.8193859E0,-4.573533E-1,4.6082735E-1,2.9312906E0,2.9903307E1,6.93426E-1,6.9529037E0,1.554571E0,7.7550597E0,1.6834347E0,3.3747005E0,1.6101433E0,4.3724194E0,2.4946458E0,9.097064E0,-6.4682E-2,-1.31054465E-2,-4.700221E-2,1.4538157E-1,2.646519E-2,3.4556958E-1,3.1229102E-3,7.0727485E-1,9.133585E-1,3.5721376E0,-1.0402799E-3,1.2238983E-1,3.4077063E-1,8.3984804E-1,3.6150042E-3,2.719806E-1,4.9233612E-1,9.7250855E-1],"categories":[],"categories_nodes":[],"categories_segments":[],"categories_sizes":[],"default_left":[0,0,0,0,0,0,0,0,0,0,0,0,0,0,0,0,0,0,0,0,0,0,0,0,0,0,0,0,0,0,0,0,0,0,0,0,0,0,0,0,0,0,0,0,0,0,0,0,0,0,0,0,0,0,0,0,0,0,0],"id":12,"left_children":[1,3,5,7,9,11,13,15,17,19,21,23,25,-1,-1,27,29,31,-1,33,35,37,39,41,-1,-1,-1,43,45,47,49,51,53,55,57,-1,-1,-1,-1,-1,-1,-1,-1,-1,-1,-1,-1,-1,-1,-1,-1,-1,-1,-1,-1,-1,-1,-1,-1],"loss_changes":[9.077753E4,3.4961844E4,1.2336833E5,1.9297076E3,4.1828973E4,7.415776E2,5.3082344E3,1.2539982E3,1.3361654E3,3.4427551E3,4.629492E3,4.4859097E1,5.3096924E0,0E0,0E0,4.9714752E2,2.0412278E3,1.2885934E2,0E0,3.578058E2,6.7677734E1,1.5835156E2,2.5524219E2,9.250879E-2,0E0,0E0,0E0,1.5053296E2,3.821483E2,6.123137E2,3.625464E1,2.626264E0,1.2379303E1,4.059598E1,4.6954834E1,0E0,0E0,0E0,0E0,0E0,0E0,0E0,0E0,0E0,0E0,0E0,0E0,0E0,0E0,0E0,0E0,0E0,0E0,0E0,0E0,0E0,0E0,0E0,0E0],"parents":[2147483647,0,0,1,1,2,2,3,3,4,4,5,5,6,6,7,7,8,8,9,9,10,10,11,11,12,12,15,15,16,16,17,17,19,19,20,20,21,21,22,22,23,23,27,27,28,28,29,29,30,30,31,31,32,32,33,33,34,34],"right_children":[2,4,6,8,10,12,14,16,18,20,22,24,26,-1,-1,28,30,32,-1,34,36,38,40,42,-1,-1,-1,44,46,48,50,52,54,56,58,-1,-1,-1,-1,-1,-1,-1,-1,-1,-1,-1,-1,-1,-1,-1,-1,-1,-1,-1,-1,-1,-1,-1,-1],"split_conditions":[2.36E2,1.5007994E0,2.5E-1,1.0731708E0,4.9E1,8.5189E-2,4.042494E2,1.36E2,4.2E1,2.4E1,1.4378E2,3.1375E-3,9.646128E-3,1.0382826E1,2.3446156E1,4.5871418E1,2.0620364E-1,2.69E0,2.4031982E0,7E0,2E0,7.4E1,8.136696E-3,2.652768E-2,4.0670037E-1,4.965454E-1,1.8193859E0,5.714286E-1,8.465E3,5.7557043E-2,9.698128E-3,5E0,2.1E1,2E0,1E1,1.6834347E0,3.3747005E0,1.6101433E0,4.3724194E0,2.4946458E0,9.097064E0,-6.4682E-2,-1.31054465E-2,-4.700221E-2,1.4538157E-1,2.646519E-2,3.4556958E-1,3.1229102E-3,7.0727485E-1,9.133585E-1,3.5721376E0,-1.0402799E-3,1.2238983E-1,3.4077063E-1,8.3984804E-1,3.6150042E-3,2.719806E-1,4.9233612E-1,9.7250855E-1],"split_indices":[3,5,5,5,3,5,1,3,3,3,1,5,0,0,0,1,5,2,0,3,5,3,0,1,0,0,0,5,4,5,0,3,3,3,3,0,0,0,0,0,0,0,0,0,0,0,0,0,0,0,0,0,0,0,0,0,0,0,0],"split_type":[0,0,0,0,0,0,0,0,0,0,0,0,0,0,0,0,0,0,0,0,0,0,0,0,0,0,0,0,0,0,0,0,0,0,0,0,0,0,0,0,0,0,0,0,0,0,0,0,0,0,0,0,0,0,0,0,0,0,0],"sum_hessian":[6.986E3,6.968E3,1.8E1,6.908E3,6E1,1.2E1,6E0,6.891E3,1.7E1,4.6E1,1.4E1,8E0,4E0,4E0,2E0,6.839E3,5.2E1,1.3E1,4E0,3.8E1,8E0,6E0,8E0,6E0,2E0,1E0,3E0,6.188E3,6.51E2,5E1,2E0,6E0,7E0,2.2E1,1.6E1,5E0,3E0,2E0,4E0,1E0,7E0,5E0,1E0,6.148E3,4E1,6.12E2,3.9E1,3E1,2E1,1E0,1E0,3E0,3E0,3E0,4E0,1E1,1.2E1,8E0,8E0],"tree_param":{"num_deleted":"0","num_feature":"6","num_nodes":"59","size_leaf_vector":"1"}},{"base_weights":[9.393151E-2,-8.0662295E-2,6.412816E1,-2.7353597E-1,2.1765976E1,6.4871335E0,1.6201462E2,-2.98337E-1,9.237699E0,7.8728786E0,6.3846615E1,8.423442E-1,1.5350327E0,9.5522E0,2.1883078E1,-3.3283913E-1,4.16002E0,3.9808183E0,2.2109425E0,3.9121146E0,2.4161425E1,3.517361E1,7.905377E1,-5.4378766E-1,3.7958705E-1,-4.0459555E-1,5.2750784E-1,2.6520908E0,2.8408138E1,6.41419E-1,6.4051905E0,1.4110965E0,7.0657206E0,1.5431485E0,3.121598E0,1.5028003E0,4.022626E0,4.0979633E0,9.12609E0,-5.9291836E-2,-1.2450176E-2,-4.7558997E-2,-1.2501627E-2,3.7344855E-3,4.203128E-1,-3.0728105E-2,5.9941876E-1,8.6769056E-1,3.3935304E0,-9.622574E-4,1.1321058E-1,3.1521282E-1,7.726602E-1,4.6086382E-2,3.1351745E-1,4.661998E-1,9.1871595E-1],"categories":[],"categories_nodes":[],"categories_segments":[],"categories_sizes":[],"default_left":[0,0,0,0,0,0,0,0,0,0,0,0,0,0,0,0,0,0,0,0,0,0,0,0,0,0,0,0,0,0,0,0,0,0,0,0,0,0,0,0,0,0,0,0,0,0,0,0,0,0,0,0,0,0,0,0,0],"id":13,"left_children":[1,3,5,7,9,11,13,15,17,19,21,23,-1,-1,-1,25,27,29,-1,31,33,35,37,39,-1,41,43,45,47,49,51,53,55,-1,-1,-1,-1,-1,-1,-1,-1,-1,-1,-1,-1,-1,-1,-1,-1,-1,-1,-1,-1,-1,-1,-1,-1],"loss_changes":[7.8119695E4,2.937082E4,1.0615222E5,1.6325088E3,3.51598E4,6.37471E2,5.5418438E3,1.0615314E3,1.1299589E3,2.9376868E3,3.759914E3,3.8909935E1,0E0,0E0,0E0,4.2248364E2,1.8625745E3,1.0923483E2,0E0,2.976314E2,7.256348E1,1.08E2,4.4314453E2,7.037902E-2,0E0,1.25264404E2,9.493142E2,5.0625778E2,3.2719727E1,2.2470968E0,1.0033813E1,3.623544E1,4.385846E1,0E0,0E0,0E0,0E0,0E0,0E0,0E0,0E0,0E0,0E0,0E0,0E0,0E0,0E0,0E0,0E0,0E0,0E0,0E0,0E0,0E0,0E0,0E0,0E0],"parents":[2147483647,0,0,1,1,2,2,3,3,4,4,5,5,6,6,7,7,8,8,9,9,10,10,11,11,15,15,16,16,17,17,19,19,20,20,21,21,22,22,23,23,25,25,26,26,27,27,28,28,29,29,30,30,31,31,32,32],"right_children":[2,4,6,8,10,12,14,16,18,20,22,24,-1,-1,-1,26,28,30,-1,32,34,36,38,40,-1,42,44,46,48,50,52,54,56,-1,-1,-1,-1,-1,-1,-1,-1,-1,-1,-1,-1,-1,-1,-1,-1,-1,-1,-1,-1,-1,-1,-1,-1],"split_conditions":[2.36E2,1.5007994E0,2.5E-1,1.0731708E0,4.9E1,8.5189E-2,4.042494E2,1.36E2,4.2E1,2.4E1,1.4378E2,3.1375E-3,1.5350327E0,9.5522E0,2.1883078E1,1.4814816E-1,2.0620364E-1,2.69E0,2.2109425E0,7E0,2E0,7.4E1,2.006E1,2.652768E-2,3.7958705E-1,2.631579E-2,1.9E1,3.3333335E-2,9.698128E-3,5E0,2.1E1,4E0,2.26E0,1.5431485E0,3.121598E0,1.5028003E0,4.022626E0,4.0979633E0,9.12609E0,-5.9291836E-2,-1.2450176E-2,-4.7558997E-2,-1.2501627E-2,3.7344855E-3,4.203128E-1,-3.0728105E-2,5.9941876E-1,8.6769056E-1,3.3935304E0,-9.622574E-4,1.1321058E-1,3.1521282E-1,7.726602E-1,4.6086382E-2,3.1351745E-1,4.661998E-1,9.1871595E-1],"split_indices":[3,5,5,5,3,5,1,3,3,3,1,5,0,0,0,5,5,2,0,3,5,3,2,1,0,5,3,5,0,3,3,3,2,0,0,0,0,0,0,0,0,0,0,0,0,0,0,0,0,0,0,0,0,0,0,0,0],"split_type":[0,0,0,0,0,0,0,0,0,0,0,0,0,0,0,0,0,0,0,0,0,0,0,0,0,0,0,0,0,0,0,0,0,0,0,0,0,0,0,0,0,0,0,0,0,0,0,0,0,0,0,0,0,0,0,0,0],"sum_hessian":[6.986E3,6.968E3,1.8E1,6.908E3,6E1,1.2E1,6E0,6.891E3,1.7E1,4.6E1,1.4E1,8E0,4E0,4E0,2E0,6.839E3,5.2E1,1.3E1,4E0,3.8E1,8E0,6E0,8E0,6E0,2E0,6.313E3,5.26E2,5E1,2E0,6E0,7E0,2.2E1,1.6E1,5E0,3E0,2E0,4E0,3E0,5E0,5E0,1E0,5.034E3,1.279E3,4.65E2,6.1E1,2.7E1,2.3E1,1E0,1E0,3E0,3E0,3E0,4E0,1.5E1,7E0,9E0,7E0],"tree_param":{"num_deleted":"0","num_feature":"6","num_nodes":"57","size_leaf_vector":"1"}},{"base_weights":[9.4133586E-2,-6.775123E-2,5.9466824E1,-2.4493691E-1,2.0001818E1,5.98018E0,1.5030391E2,-2.677497E-1,8.503433E0,7.221958E0,5.871192E1,1.5030164E0,1.5678043E0,8.788024E0,2.0424206E1,-2.9950202E-1,3.8351483E0,3.66846E0,2.0340672E0,3.5656343E0,2.2263588E1,3.2445595E1,7.261774E1,-4.9965772E-1,4.631942E-1,-3.753213E-1,3.7900886E-1,2.3980327E0,2.6987734E1,5.9331256E-1,5.900656E0,1.2856218E0,6.440614E0,1.4145529E0,2.887478E0,1.4026135E0,3.7008152E0,3.7906163E0,8.365583E0,-5.435085E-2,-1.1827665E-2,-3.8641594E-2,1.2880157E-1,3.2296743E-2,7.969672E-1,3.1680923E-2,6.5418434E-1,8.24306E-1,3.223854E0,-8.900881E-4,1.0471978E-1,2.9157192E-1,7.108475E-1,4.176579E-2,2.8608465E-1,4.0210494E-1,8.144555E-1],"categories":[],"categories_nodes":[],"categories_segments":[],"categories_sizes":[],"default_left":[0,0,0,0,0,0,0,0,0,0,0,0,0,0,0,0,0,0,0,0,0,0,0,0,0,0,0,0,0,0,0,0,0,0,0,0,0,0,0,0,0,0,0,0,0,0,0,0,0,0,0,0,0,0,0,0,0],"id":14,"left_children":[1,3,5,7,9,11,13,15,17,19,21,23,-1,-1,-1,25,27,29,-1,31,33,35,37,39,-1,41,43,45,47,49,51,53,55,-1,-1,-1,-1,-1,-1,-1,-1,-1,-1,-1,-1,-1,-1,-1,-1,-1,-1,-1,-1,-1,-1,-1,-1],"loss_changes":[6.715984E4,2.4786943E4,9.1413984E4,1.3811383E3,2.975327E4,5.4088165E2,5.6202812E3,8.990145E2,9.5556995E2,2.5054788E3,3.1226953E3,6.497656E1,0E0,0E0,0E0,3.520205E2,1.6987488E3,9.259973E1,0E0,2.4736444E2,7.458154E1,6.9197754E1,2.7727344E2,5.2782416E-2,0E0,1.1404596E2,2.900954E2,4.3776147E2,2.9529541E1,1.922672E0,8.115784E0,3.0251621E1,3.733783E1,0E0,0E0,0E0,0E0,0E0,0E0,0E0,0E0,0E0,0E0,0E0,0E0,0E0,0E0,0E0,0E0,0E0,0E0,0E0,0E0,0E0,0E0,0E0,0E0],"parents":[2147483647,0,0,1,1,2,2,3,3,4,4,5,5,6,6,7,7,8,8,9,9,10,10,11,11,15,15,16,16,17,17,19,19,20,20,21,21,22,22,23,23,25,25,26,26,27,27,28,28,29,29,30,30,31,31,32,32],"right_children":[2,4,6,8,10,12,14,16,18,20,22,24,-1,-1,-1,26,28,30,-1,32,34,36,38,40,-1,42,44,46,48,50,52,54,56,-1,-1,-1,-1,-1,-1,-1,-1,-1,-1,-1,-1,-1,-1,-1,-1,-1,-1,-1,-1,-1,-1,-1,-1],"split_conditions":[2.36E2,1.5007994E0,2.5E-1,1.0731708E0,4.9E1,1.267276E-1,4.042494E2,1.36E2,4.2E1,2.4E1,1.4378E2,3.1375E-3,1.5678043E0,8.788024E0,2.0424206E1,4.288E1,2.0620364E-1,2.69E0,2.0340672E0,7E0,2E0,7.4E1,2.006E1,2.652768E-2,4.631942E-1,5.714286E-1,1.2752E4,9.5238E-2,9.698128E-3,5E0,2.1E1,4E0,1E1,1.4145529E0,2.887478E0,1.4026135E0,3.7008152E0,3.7906163E0,8.365583E0,-5.435085E-2,-1.1827665E-2,-3.8641594E-2,1.2880157E-1,3.2296743E-2,7.969672E-1,3.1680923E-2,6.5418434E-1,8.24306E-1,3.223854E0,-8.900881E-4,1.0471978E-1,2.9157192E-1,7.108475E-1,4.176579E-2,2.8608465E-1,4.0210494E-1,8.144555E-1],"split_indices":[3,5,5,5,3,5,1,3,3,3,1,5,0,0,0,1,5,2,0,3,5,3,2,1,0,5,4,5,0,3,3,3,3,0,0,0,0,0,0,0,0,0,0,0,0,0,0,0,0,0,0,0,0,0,0,0,0],"split_type":[0,0,0,0,0,0,0,0,0,0,0,0,0,0,0,0,0,0,0,0,0,0,0,0,0,0,0,0,0,0,0,0,0,0,0,0,0,0,0,0,0,0,0,0,0,0,0,0,0,0,0,0,0,0,0,0,0],"sum_hessian":[6.986E3,6.968E3,1.8E1,6.908E3,6E1,1.2E1,6E0,6.891E3,1.7E1,4.6E1,1.4E1,9E0,3E0,4E0,2E0,6.839E3,5.2E1,1.3E1,4E0,3.8E1,8E0,6E0,8E0,6E0,3E0,6.152E3,6.87E2,5E1,2E0,6E0,7E0,2.2E1,1.6E1,5E0,3E0,2E0,4E0,3E0,5E0,5E0,1E0,6.112E3,4E1,6.83E2,4E0,3.4E1,1.6E1,1E0,1E0,3E0,3E0,3E0,4E0,1.5E1,7E0,8E0,8E0],"tree_param":{"num_deleted":"0","num_feature":"6","num_nodes":"57","size_leaf_vector":"1"}},{"base_weights":[9.374798E-2,-5.639871E-2,5.516104E1,-2.1917042E-1,1.8380423E1,5.533302E0,1.3944669E2,-2.4015443E-1,7.8275514E0,6.6241546E0,5.399137E1,7.208919E-1,1.3088979E1,8.084982E0,1.9062592E1,-2.694174E-1,3.5409548E0,3.3806317E0,1.8713417E0,3.2486713E0,2.051523E1,2.99301E1,6.670665E1,-4.5914602E-1,3.2340166E-1,5.466641E-1,1.6348324E0,-3.2422188E-1,5.6484675E-1,2.1716776E0,2.5638348E1,5.488141E-1,5.435893E0,1.4577779E0,6.342568E0,1.2966734E0,2.670917E0,1.3091062E0,3.40475E0,3.5063198E0,7.668451E0,-4.982161E-2,-1.123628E-2,-3.8812164E-2,-7.279092E-3,8.645504E-3,4.4732997E-1,3.6458243E-2,6.101912E-1,7.830907E-1,3.0626614E0,-8.233309E-4,9.6865796E-2,2.6970395E-1,6.539797E-1,3.785026E-2,2.8951076E-1,3.4848925E-1,8.050213E-1],"categories":[],"categories_nodes":[],"categories_segments":[],"categories_sizes":[],"default_left":[0,0,0,0,0,0,0,0,0,0,0,0,0,0,0,0,0,0,0,0,0,0,0,0,0,0,0,0,0,0,0,0,0,0,0,0,0,0,0,0,0,0,0,0,0,0,0,0,0,0,0,0,0,0,0,0,0,0,0],"id":15,"left_children":[1,3,5,7,9,11,13,15,17,19,21,23,25,-1,-1,27,29,31,-1,33,35,37,39,41,-1,-1,-1,43,45,47,49,51,53,55,57,-1,-1,-1,-1,-1,-1,-1,-1,-1,-1,-1,-1,-1,-1,-1,-1,-1,-1,-1,-1,-1,-1,-1,-1],"loss_changes":[5.777283E4,2.091795E4,7.8703625E4,1.1684819E3,2.5180113E4,4.6325745E2,5.5805312E3,7.635293E2,8.080912E2,2.1371404E3,2.5926523E3,2.8175125E1,3.4848755E1,0E0,0E0,3.1291772E2,1.5479667E3,7.8498474E1,0E0,2.0684671E2,7.446362E1,3.9614258E1,1.5280078E2,3.8861036E-2,0E0,0E0,0E0,1.0310181E2,7.8865686E2,3.5999304E2,2.6650635E1,1.6450858E0,6.549347E0,3.9237328E1,4.0264404E1,0E0,0E0,0E0,0E0,0E0,0E0,0E0,0E0,0E0,0E0,0E0,0E0,0E0,0E0,0E0,0E0,0E0,0E0,0E0,0E0,0E0,0E0,0E0,0E0],"parents":[2147483647,0,0,1,1,2,2,3,3,4,4,5,5,6,6,7,7,8,8,9,9,10,10,11,11,12,12,15,15,16,16,17,17,19,19,20,20,21,21,22,22,23,23,27,27,28,28,29,29,30,30,31,31,32,32,33,33,34,34],"right_children":[2,4,6,8,10,12,14,16,18,20,22,24,26,-1,-1,28,30,32,-1,34,36,38,40,42,-1,-1,-1,44,46,48,50,52,54,56,58,-1,-1,-1,-1,-1,-1,-1,-1,-1,-1,-1,-1,-1,-1,-1,-1,-1,-1,-1,-1,-1,-1,-1,-1],"split_conditions":[2.36E2,1.5007994E0,2.5E-1,1.0731708E0,4.9E1,8.5189E-2,4.042494E2,1.36E2,4.2E1,2.4E1,1.4378E2,3.1375E-3,1.666665E-1,8.084982E0,1.9062592E1,1.6860466E-1,2.0620364E-1,2.69E0,1.8713417E0,1.959678E0,2E0,7.4E1,2.006E1,2.652768E-2,3.2340166E-1,5.466641E-1,1.6348324E0,3.14944E-2,1.9E1,1.0252849E-1,9.698128E-3,5E0,2.1E1,4E0,1E1,1.2966734E0,2.670917E0,1.3091062E0,3.40475E0,3.5063198E0,7.668451E0,-4.982161E-2,-1.123628E-2,-3.8812164E-2,-7.279092E-3,8.645504E-3,4.4732997E-1,3.6458243E-2,6.101912E-1,7.830907E-1,3.0626614E0,-8.233309E-4,9.6865796E-2,2.6970395E-1,6.539797E-1,3.785026E-2,2.8951076E-1,3.4848925E-1,8.050213E-1],"split_indices":[3,5,5,5,3,5,1,3,3,3,1,5,5,0,0,5,5,2,0,2,5,3,2,1,0,0,0,5,3,5,0,3,3,3,3,0,0,0,0,0,0,0,0,0,0,0,0,0,0,0,0,0,0,0,0,0,0,0,0],"split_type":[0,0,0,0,0,0,0,0,0,0,0,0,0,0,0,0,0,0,0,0,0,0,0,0,0,0,0,0,0,0,0,0,0,0,0,0,0,0,0,0,0,0,0,0,0,0,0,0,0,0,0,0,0,0,0,0,0,0,0],"sum_hessian":[6.986E3,6.968E3,1.8E1,6.908E3,6E1,1.2E1,6E0,6.891E3,1.7E1,4.6E1,1.4E1,8E0,4E0,4E0,2E0,6.839E3,5.2E1,1.3E1,4E0,3.8E1,8E0,6E0,8E0,6E0,2E0,2E0,2E0,6.418E3,4.21E2,5E1,2E0,6E0,7E0,2.5E1,1.3E1,5E0,3E0,2E0,4E0,3E0,5E0,5E0,1E0,5.117E3,1.301E3,3.76E2,4.5E1,3.5E1,1.5E1,1E0,1E0,3E0,3E0,3E0,4E0,1.5E1,1E1,6E0,7E0],"tree_param":{"num_deleted":"0","num_feature":"6","num_nodes":"59","size_leaf_vector":"1"}},{"base_weights":[9.277762E-2,-4.6578843E-2,5.1202377E1,-1.9612539E-1,1.689217E1,5.1679587E0,1.2938025E2,-2.3381887E-1,3.6566014E0,6.077664E0,4.9651474E1,1.2991042E0,1.3548106E0,7.438183E0,1.7791754E1,-2.7663037E-1,1.8954856E0,1.7787513E0,2.6586194E0,2.961775E0,1.8904552E1,2.7610498E1,6.1277626E1,-4.2195395E-1,3.9861798E-1,-3.3762807E-1,1.7286338E-2,6.772015E-1,4.7719803E0,4.156191E-1,8.96179E0,9.5869255E-1,5.2454443E0,1.1886173E0,2.4705985E0,1.2218326E0,3.1323705E0,1.8001686E0,6.443691E0,-4.5669805E-2,-1.06744645E-2,-3.563968E-2,-1.728258E-2,-1.053471E-3,3.5579124E-1,3.167976E-2,2.3333843E-1,2.3790185E-1,6.6217214E-1,-7.7415526E-2,1.8267237E-1,1.4793006E-1,9.628811E-1,5.1232964E-2,3.6148813E-1,3.438108E-1,7.0748514E-1],"categories":[],"categories_nodes":[],"categories_segments":[],"categories_sizes":[],"default_left":[0,0,0,0,0,0,0,0,0,0,0,0,0,0,0,0,0,0,0,0,0,0,0,0,0,0,0,0,0,0,0,0,0,0,0,0,0,0,0,0,0,0,0,0,0,0,0,0,0,0,0,0,0,0,0,0,0],"id":16,"left_children":[1,3,5,7,9,11,13,15,17,19,21,23,-1,-1,-1,25,27,29,-1,31,33,35,37,39,-1,41,43,45,47,49,51,53,55,-1,-1,-1,-1,-1,-1,-1,-1,-1,-1,-1,-1,-1,-1,-1,-1,-1,-1,-1,-1,-1,-1,-1,-1],"loss_changes":[4.9766965E4,1.7656705E4,6.770995E4,1.0041987E3,2.1309053E4,4.0388004E2,5.4524844E3,6.2432336E2,2.8376184E3,1.8224653E3,2.151871E3,4.7928116E1,0E0,0E0,0E0,1.202865E2,4.6986075E2,6.1313556E2,0E0,1.7337195E2,7.279028E1,1.7356934E1,7.051172E1,2.7911663E-2,0E0,1.712384E1,1.13711006E2,5.6562687E1,1.6130121E2,9.207454E1,3.5665833E1,2.4231722E1,3.5190277E1,0E0,0E0,0E0,0E0,0E0,0E0,0E0,0E0,0E0,0E0,0E0,0E0,0E0,0E0,0E0,0E0,0E0,0E0,0E0,0E0,0E0,0E0,0E0,0E0],"parents":[2147483647,0,0,1,1,2,2,3,3,4,4,5,5,6,6,7,7,8,8,9,9,10,10,11,11,15,15,16,16,17,17,19,19,20,20,21,21,22,22,23,23,25,25,26,26,27,27,28,28,29,29,30,30,31,31,32,32],"right_children":[2,4,6,8,10,12,14,16,18,20,22,24,-1,-1,-1,26,28,30,-1,32,34,36,38,40,-1,42,44,46,48,50,52,54,56,-1,-1,-1,-1,-1,-1,-1,-1,-1,-1,-1,-1,-1,-1,-1,-1,-1,-1,-1,-1,-1,-1,-1,-1],"split_conditions":[2.36E2,1.5007994E0,2.5E-1,7.5E-1,4.9E1,1.267276E-1,4.042494E2,1.7852121E2,4.9E1,2.4E1,1.4378E2,3.1375E-3,1.3548106E0,7.438183E0,1.7791754E1,1.9571358E1,8.465E3,2E1,2.6586194E0,6E0,2E0,7.4E1,8.136696E-3,2.652768E-2,3.9861798E-1,3.14944E-2,1.2752E4,2.8174636E-1,1.4133778E-1,3E0,2.99E0,3.0695539E0,2.26E0,1.1886173E0,2.4705985E0,1.2218326E0,3.1323705E0,1.8001686E0,6.443691E0,-4.5669805E-2,-1.06744645E-2,-3.563968E-2,-1.728258E-2,-1.053471E-3,3.5579124E-1,3.167976E-2,2.3333843E-1,2.3790185E-1,6.6217214E-1,-7.7415526E-2,1.8267237E-1,1.4793006E-1,9.628811E-1,5.1232964E-2,3.6148813E-1,3.438108E-1,7.0748514E-1],"split_indices":[3,5,5,5,3,5,1,1,3,3,1,5,0,0,0,1,4,3,0,3,5,3,0,1,0,5,4,5,5,3,2,5,2,0,0,0,0,0,0,0,0,0,0,0,0,0,0,0,0,0,0,0,0,0,0,0,0],"split_type":[0,0,0,0,0,0,0,0,0,0,0,0,0,0,0,0,0,0,0,0,0,0,0,0,0,0,0,0,0,0,0,0,0,0,0,0,0,0,0,0,0,0,0,0,0,0,0,0,0,0,0,0,0,0,0,0,0],"sum_hessian":[6.986E3,6.968E3,1.8E1,6.908E3,6E1,1.2E1,6E0,6.842E3,6.6E1,4.6E1,1.4E1,9E0,3E0,4E0,2E0,6.708E3,1.34E2,6.2E1,4E0,3.8E1,8E0,6E0,8E0,6E0,3E0,5.555E3,1.153E3,9.5E1,3.9E1,5.3E1,9E0,2.1E1,1.7E1,5E0,3E0,2E0,4E0,1E0,7E0,5E0,1E0,4.986E3,5.69E2,1.145E3,8E0,7.9E1,1.6E1,1.8E1,2.1E1,2.9E1,2.4E1,1E0,8E0,1.9E1,2E0,1E1,7E0],"tree_param":{"num_deleted":"0","num_feature":"6","num_nodes":"57","size_leaf_vector":"1"}},{"base_weights":[9.065455E-2,-3.8611613E-2,4.749935E1,-1.7573972E-1,1.5493464E1,4.7817082E0,1.200465E2,-2.1022263E-1,3.3487723E0,5.5789027E0,4.5526196E1,1.7360475E0,1.4355229E0,6.843129E0,1.6605635E1,-2.4892235E-1,1.7145673E0,1.6201788E0,2.4459298E0,2.7031364E0,1.7420677E1,3.2170212E0,6.5804124E0,-3.8780776E-1,4.3622357E-1,-3.1604022E-1,-2.9574953E-2,6.122419E-1,4.317284E0,8.856946E-2,6.974485E0,1.1951976E0,5.310513E0,1.0895659E0,2.2853038E0,-4.186399E-2,-1.0140741E-2,-3.2219626E-2,-1.7150944E-2,-1.2236657E-2,1.7504998E-1,2.8551383E-2,2.1137717E-1,2.7596688E-1,7.012879E-1,-6.993203E-2,1.20990865E-1,3.1751746E-1,8.176692E-1,-1.2798642E-2,2.0301867E-1,2.8813356E-1,6.772229E-1],"categories":[],"categories_nodes":[],"categories_segments":[],"categories_sizes":[],"default_left":[0,0,0,0,0,0,0,0,0,0,0,0,0,0,0,0,0,0,0,0,0,0,0,0,0,0,0,0,0,0,0,0,0,0,0,0,0,0,0,0,0,0,0,0,0,0,0,0,0,0,0,0,0],"id":17,"left_children":[1,3,5,7,9,11,13,15,17,19,21,23,-1,-1,-1,25,27,29,-1,31,33,-1,-1,35,-1,37,39,41,43,45,47,49,51,-1,-1,-1,-1,-1,-1,-1,-1,-1,-1,-1,-1,-1,-1,-1,-1,-1,-1,-1,-1],"loss_changes":[4.282055E4,1.4845886E4,5.8307793E4,8.4039233E2,1.7909459E4,3.5412863E2,5.260211E3,5.1015396E2,2.4053035E3,1.5534557E3,1.945541E3,6.3045788E1,0E0,0E0,0E0,9.876141E1,3.8467734E2,5.160267E2,0E0,1.469917E2,7.0017334E1,0E0,0E0,1.9359231E-2,0E0,4.515259E0,2.6003607E2,4.649332E1,1.4859479E2,4.502069E1,3.79834E1,2.8985786E1,3.0197662E1,0E0,0E0,0E0,0E0,0E0,0E0,0E0,0E0,0E0,0E0,0E0,0E0,0E0,0E0,0E0,0E0,0E0,0E0,0E0,0E0],"parents":[2147483647,0,0,1,1,2,2,3,3,4,4,5,5,6,6,7,7,8,8,9,9,10,10,11,11,15,15,16,16,17,17,19,19,20,20,23,23,25,25,26,26,27,27,28,28,29,29,30,30,31,31,32,32],"right_children":[2,4,6,8,10,12,14,16,18,20,22,24,-1,-1,-1,26,28,30,-1,32,34,-1,-1,36,-1,38,40,42,44,46,48,50,52,-1,-1,-1,-1,-1,-1,-1,-1,-1,-1,-1,-1,-1,-1,-1,-1,-1,-1,-1,-1],"split_conditions":[2.36E2,1.5007994E0,2.5E-1,7.5E-1,4.9E1,1.666665E-1,4.042494E2,1.7852121E2,4.9E1,2.4E1,2.3903107E2,3.1375E-3,1.4355229E0,6.843129E0,1.6605635E1,3.14944E-2,8.465E3,9E0,2.4459298E0,1.959678E0,2E0,3.2170212E0,6.5804124E0,2.652768E-2,4.3622357E-1,1.046E1,4.6E1,2.8174636E-1,4.042494E2,3E0,2E1,2E0,1E1,1.0895659E0,2.2853038E0,-4.186399E-2,-1.0140741E-2,-3.2219626E-2,-1.7150944E-2,-1.2236657E-2,1.7504998E-1,2.8551383E-2,2.1137717E-1,2.7596688E-1,7.012879E-1,-6.993203E-2,1.20990865E-1,3.1751746E-1,8.176692E-1,-1.2798642E-2,2.0301867E-1,2.8813356E-1,6.772229E-1],"split_indices":[3,5,5,5,3,5,1,1,3,3,1,5,0,0,0,5,4,3,0,2,5,0,0,1,0,1,3,5,1,3,3,3,3,0,0,0,0,0,0,0,0,0,0,0,0,0,0,0,0,0,0,0,0],"split_type":[0,0,0,0,0,0,0,0,0,0,0,0,0,0,0,0,0,0,0,0,0,0,0,0,0,0,0,0,0,0,0,0,0,0,0,0,0,0,0,0,0,0,0,0,0,0,0,0,0,0,0,0,0],"sum_hessian":[6.986E3,6.968E3,1.8E1,6.908E3,6E1,1.2E1,6E0,6.842E3,6.6E1,4.6E1,1.4E1,1E1,2E0,4E0,2E0,6.708E3,1.34E2,6.2E1,4E0,3.8E1,8E0,1E1,4E0,6E0,4E0,5.136E3,1.572E3,9.5E1,3.9E1,4.9E1,1.3E1,2.5E1,1.3E1,5E0,3E0,5E0,1E0,4.925E3,2.11E2,1.495E3,7.7E1,7.9E1,1.6E1,2.6E1,1.3E1,2.9E1,2E1,4E0,9E0,1E1,1.5E1,6E0,7E0],"tree_param":{"num_deleted":"0","num_feature":"6","num_nodes":"53","size_leaf_vector":"1"}},{"base_weights":[8.796655E-2,-3.1982377E-2,4.4079338E1,-1.5744743E-1,1.4179001E1,4.4435177E0,1.1139167E2,-1.8900591E-1,3.068107E0,5.117405E0,4.1626736E1,1.5973718E0,1.3398212E0,6.295678E0,1.5498595E1,-2.240132E-1,1.5521268E0,1.4769902E0,2.2502554E1,2.462453E0,1.6053596E1,2.9245646E0,6.053979E0,-3.5645622E-1,4.0132567E-1,-2.6746044E-1,6.407939E-2,5.53517E-1,3.9099872E0,-1.7440678E-1,5.615172E0,6.772671E-1,2.4741857E0,1.0829941E0,4.8484154E0,9.9876875E-1,2.1139061E0,-3.837533E-2,-9.633702E-3,-2.8456345E-2,-1.0882507E-2,3.4814514E-3,3.2495984E-1,2.5731936E-2,1.9148283E-1,2.4021053E-1,6.2629837E-1,-9.0181924E-2,4.1982662E-2,2.9628E-1,7.44079E-1,2.201519E-2,2.2395833E-1,2.634364E-1,6.179659E-1],"categories":[],"categories_nodes":[],"categories_segments":[],"categories_sizes":[],"default_left":[0,0,0,0,0,0,0,0,0,0,0,0,0,0,0,0,0,0,0,0,0,0,0,0,0,0,0,0,0,0,0,0,0,0,0,0,0,0,0,0,0,0,0,0,0,0,0,0,0,0,0,0,0,0,0],"id":18,"left_children":[1,3,5,7,9,11,13,15,17,19,21,23,-1,-1,-1,25,27,29,31,33,35,-1,-1,37,-1,39,41,43,45,47,49,-1,-1,51,53,-1,-1,-1,-1,-1,-1,-1,-1,-1,-1,-1,-1,-1,-1,-1,-1,-1,-1,-1,-1],"loss_changes":[3.6869836E4,1.2427833E4,5.019664E4,7.038718E2,1.4958917E4,3.0992087E2,5.0229766E3,4.1744455E2,2.0385696E3,1.3251168E3,1.7419375E3,5.3353004E1,0E0,0E0,0E0,8.399255E1,3.1570438E2,4.315075E2,8.55127E0,1.2311134E2,6.650122E1,0E0,0E0,1.2733698E-2,0E0,1.5786682E1,8.192381E1,3.8216125E1,1.2687726E2,2.0262234E1,6.511438E1,0E0,0E0,2.5453758E1,2.498471E1,0E0,0E0,0E0,0E0,0E0,0E0,0E0,0E0,0E0,0E0,0E0,0E0,0E0,0E0,0E0,0E0,0E0,0E0,0E0,0E0],"parents":[2147483647,0,0,1,1,2,2,3,3,4,4,5,5,6,6,7,7,8,8,9,9,10,10,11,11,15,15,16,16,17,17,18,18,19,19,20,20,23,23,25,25,26,26,27,27,28,28,29,29,30,30,33,33,34,34],"right_children":[2,4,6,8,10,12,14,16,18,20,22,24,-1,-1,-1,26,28,30,32,34,36,-1,-1,38,-1,40,42,44,46,48,50,-1,-1,52,54,-1,-1,-1,-1,-1,-1,-1,-1,-1,-1,-1,-1,-1,-1,-1,-1,-1,-1,-1,-1],"split_conditions":[2.36E2,1.5007994E0,2.5E-1,7.5E-1,4.9E1,1.666665E-1,4.042494E2,1.7852121E2,4.9E1,2.4E1,2.3903107E2,3.1375E-3,1.3398212E0,6.295678E0,1.5498595E1,2.797E1,8.465E3,8E0,6.1E1,1.959678E0,2E0,2.9245646E0,6.053979E0,2.652768E-2,4.0132567E-1,2.656E3,1.2752E4,2.8174636E-1,1.7692554E-1,2E0,2E1,6.772671E-1,2.4741857E0,4E0,1E1,9.9876875E-1,2.1139061E0,-3.837533E-2,-9.633702E-3,-2.8456345E-2,-1.0882507E-2,3.4814514E-3,3.2495984E-1,2.5731936E-2,1.9148283E-1,2.4021053E-1,6.2629837E-1,-9.0181924E-2,4.1982662E-2,2.9628E-1,7.44079E-1,2.201519E-2,2.2395833E-1,2.634364E-1,6.179659E-1],"split_indices":[3,5,5,5,3,5,1,1,3,3,1,5,0,0,0,1,4,3,3,2,5,0,0,1,0,4,4,5,5,3,3,0,0,3,3,0,0,0,0,0,0,0,0,0,0,0,0,0,0,0,0,0,0,0,0],"split_type":[0,0,0,0,0,0,0,0,0,0,0,0,0,0,0,0,0,0,0,0,0,0,0,0,0,0,0,0,0,0,0,0,0,0,0,0,0,0,0,0,0,0,0,0,0,0,0,0,0,0,0,0,0,0,0],"sum_hessian":[6.986E3,6.968E3,1.8E1,6.908E3,6E1,1.2E1,6E0,6.842E3,6.6E1,4.6E1,1.4E1,1E1,2E0,4E0,2E0,6.708E3,1.34E2,6.2E1,4E0,3.8E1,8E0,1E1,4E0,6E0,4E0,5.829E3,8.79E2,9.5E1,3.9E1,4.5E1,1.7E1,1E0,3E0,2.5E1,1.3E1,5E0,3E0,5E0,1E0,5.261E3,5.68E2,8.72E2,7E0,7.9E1,1.6E1,2.5E1,1.4E1,2E1,2.5E1,8E0,9E0,1.5E1,1E1,6E0,7E0],"tree_param":{"num_deleted":"0","num_feature":"6","num_nodes":"55","size_leaf_vector":"1"}},{"base_weights":[8.521287E-2,-2.6095819E-2,4.090758E1,-1.4090426E-1,1.2977799E1,4.1294074E0,1.0336597E2,-1.6990472E-1,2.823141E0,6.833153E0,4.7720963E1,1.4697545E0,1.2504998E0,5.792023E0,1.4465355E1,-2.015688E-1,1.4049416E0,1.3450397E0,2.0882592E0,2.2451148E0,1.8306509E1,2.374956E0,5.57484E0,-3.2766905E-1,3.6921963E-1,-2.5302005E-1,1.4762438E-2,4.131743E-1,3.3792946E0,-1.580139E-1,5.1114526E0,9.8415536E-1,4.4265313E0,6.5288085E-1,1.9616247E1,-3.5177384E-2,-9.152019E-3,-2.6446035E-2,-1.6386097E-2,-7.6702586E-3,2.2383285E-1,6.3501894E-3,1.5757251E-1,1.5785293E-1,4.8891923E-1,-8.159316E-2,3.7945867E-2,2.6994398E-1,6.7711186E-1,2.0465915E-1,1.9222077E-2,2.4085608E-1,5.638939E-1,2.2676659E0,1.2266324E0],"categories":[],"categories_nodes":[],"categories_segments":[],"categories_sizes":[],"default_left":[0,0,0,0,0,0,0,0,0,0,0,0,0,0,0,0,0,0,0,0,0,0,0,0,0,0,0,0,0,0,0,0,0,0,0,0,0,0,0,0,0,0,0,0,0,0,0,0,0,0,0,0,0,0,0],"id":19,"left_children":[1,3,5,7,9,11,13,15,17,19,21,23,-1,-1,-1,25,27,29,-1,31,33,-1,-1,35,-1,37,39,41,43,45,47,49,51,-1,53,-1,-1,-1,-1,-1,-1,-1,-1,-1,-1,-1,-1,-1,-1,-1,-1,-1,-1,-1,-1],"loss_changes":[3.174919E4,1.0406244E4,4.3218164E4,5.9436816E2,1.2696466E4,2.7121088E2,4.756039E3,3.4151672E2,1.7603899E3,2.74883E3,4.0786133E2,4.5151184E1,0E0,0E0,0E0,7.4678345E1,2.6294708E2,3.5745828E2,0E0,1.0292006E2,1.0331494E2,0E0,0E0,7.651806E-3,0E0,5.4851074E0,2.6253E2,3.6892525E1,1.1463599E2,1.6575798E1,5.37782E1,2.1482483E1,2.0670685E1,0E0,1.4260254E1,0E0,0E0,0E0,0E0,0E0,0E0,0E0,0E0,0E0,0E0,0E0,0E0,0E0,0E0,0E0,0E0,0E0,0E0,0E0,0E0],"parents":[2147483647,0,0,1,1,2,2,3,3,4,4,5,5,6,6,7,7,8,8,9,9,10,10,11,11,15,15,16,16,17,17,19,19,20,20,23,23,25,25,26,26,27,27,28,28,29,29,30,30,31,31,32,32,34,34],"right_children":[2,4,6,8,10,12,14,16,18,20,22,24,-1,-1,-1,26,28,30,-1,32,34,-1,-1,36,-1,38,40,42,44,46,48,50,52,-1,54,-1,-1,-1,-1,-1,-1,-1,-1,-1,-1,-1,-1,-1,-1,-1,-1,-1,-1,-1,-1],"split_conditions":[2.36E2,1.5007994E0,2.5E-1,7.5E-1,1.7852121E2,1.666665E-1,4.042494E2,1.7852121E2,4.9E1,2.4E1,1.8409576E0,3.1375E-3,1.2504998E0,5.792023E0,1.4465355E1,5.1282052E-2,7.6E1,8E0,2.0882592E0,1.959678E0,1.0948905E-2,2.374956E0,5.57484E0,2.652768E-2,3.6921963E-1,5.3804377E-3,4.4E1,2.5012845E-1,1.4133778E-1,2E0,2E1,2.652768E-2,1E1,6.5288085E-1,1.4037985E-2,-3.5177384E-2,-9.152019E-3,-2.6446035E-2,-1.6386097E-2,-7.6702586E-3,2.2383285E-1,6.3501894E-3,1.5757251E-1,1.5785293E-1,4.8891923E-1,-8.159316E-2,3.7945867E-2,2.6994398E-1,6.7711186E-1,2.0465915E-1,1.9222077E-2,2.4085608E-1,5.638939E-1,2.2676659E0,1.2266324E0],"split_indices":[3,5,5,5,1,5,1,1,3,3,5,5,0,0,0,5,3,3,0,2,0,0,0,1,0,5,3,5,5,3,3,1,3,0,0,0,0,0,0,0,0,0,0,0,0,0,0,0,0,0,0,0,0,0,0],"split_type":[0,0,0,0,0,0,0,0,0,0,0,0,0,0,0,0,0,0,0,0,0,0,0,0,0,0,0,0,0,0,0,0,0,0,0,0,0,0,0,0,0,0,0,0,0,0,0,0,0,0,0,0,0,0,0],"sum_hessian":[6.986E3,6.968E3,1.8E1,6.908E3,6E1,1.2E1,6E0,6.842E3,6.6E1,5.2E1,8E0,1E1,2E0,4E0,2E0,6.708E3,1.34E2,6.2E1,4E0,3.8E1,1.4E1,3E0,5E0,6E0,4E0,5.419E3,1.289E3,9E1,4.4E1,4.5E1,1.7E1,2.5E1,1.3E1,2E0,1.2E1,5E0,1E0,4.801E3,6.18E2,1.239E3,5E1,7E1,2E1,2.1E1,2.3E1,2E1,2.5E1,8E0,9E0,1E1,1.5E1,6E0,7E0,7E0,5E0],"tree_param":{"num_deleted":"0","num_feature":"6","num_nodes":"55","size_leaf_vector":"1"}},{"base_weights":[8.226395E-2,-2.103233E-2,3.796592E1,-1.2623839E-1,1.1895193E1,3.8376505E0,9.592329E1,-1.5277044E-1,2.585479E0,6.2474937E0,4.3832176E1,1.3523145E0,1.1671332E0,5.3286614E0,1.3500999E1,-1.8138608E-1,1.2704527E0,1.2248756E0,1.9211987E1,2.0469782E0,1.6752335E1,2.1574192E1,5.1365466E0,-3.012349E-1,3.3968207E-1,-2.2772595E-1,1.3453771E-2,5.206877E-1,3.4823816E0,6.418157E-2,5.28272E0,5.389908E-1,2.1320028E0,6.3357097E-1,3.6607552E0,6.093554E-1,1.7923412E1,2.4439616E0,6.4889604E-1,-3.2245934E-2,-8.694417E-3,-2.3801984E-2,-1.4750133E-2,-2.9309962E-3,3.9131564E-1,2.1135917E-2,1.9524786E-1,1.8902642E-1,5.6218165E-1,-5.4118108E-2,9.259292E-2,7.1804965E-1,3.4305674E-1,2.3463931E-2,3.0819252E-1,1.915328E-1,4.5973608E-1,1.2506086E0,2.2159278E0],"categories":[],"categories_nodes":[],"categories_segments":[],"categories_sizes":[],"default_left":[0,0,0,0,0,0,0,0,0,0,0,0,0,0,0,0,0,0,0,0,0,0,0,0,0,0,0,0,0,0,0,0,0,0,0,0,0,0,0,0,0,0,0,0,0,0,0,0,0,0,0,0,0,0,0,0,0,0,0],"id":20,"left_children":[1,3,5,7,9,11,13,15,17,19,21,23,-1,-1,-1,25,27,29,31,33,35,37,-1,39,-1,41,43,45,47,49,51,-1,-1,53,55,-1,57,-1,-1,-1,-1,-1,-1,-1,-1,-1,-1,-1,-1,-1,-1,-1,-1,-1,-1,-1,-1,-1,-1],"loss_changes":[2.734261E4,8.738251E3,3.7213586E4,4.9747974E2,1.0728757E4,2.3731802E2,4.471465E3,2.7892154E2,1.4921471E3,2.304373E3,4.0091406E2,3.821086E1,0E0,0E0,0E0,6.057762E1,2.2207442E2,2.9638565E2,3.0774658E1,8.663667E1,7.80166E1,1.4314575E1,0E0,3.8015246E-3,0E0,4.440857E0,2.1524261E2,4.4762486E1,1.0518518E2,2.6584587E1,2.4576416E1,0E0,0E0,2.0764832E1,2.062053E1,0E0,2.1186035E1,0E0,0E0,0E0,0E0,0E0,0E0,0E0,0E0,0E0,0E0,0E0,0E0,0E0,0E0,0E0,0E0,0E0,0E0,0E0,0E0,0E0,0E0],"parents":[2147483647,0,0,1,1,2,2,3,3,4,4,5,5,6,6,7,7,8,8,9,9,10,10,11,11,15,15,16,16,17,17,18,18,19,19,20,20,21,21,23,23,25,25,26,26,27,27,28,28,29,29,30,30,33,33,34,34,36,36],"right_children":[2,4,6,8,10,12,14,16,18,20,22,24,-1,-1,-1,26,28,30,32,34,36,38,-1,40,-1,42,44,46,48,50,52,-1,-1,54,56,-1,58,-1,-1,-1,-1,-1,-1,-1,-1,-1,-1,-1,-1,-1,-1,-1,-1,-1,-1,-1,-1,-1,-1],"split_conditions":[2.36E2,1.5007994E0,2.5E-1,7.5E-1,1.7852121E2,1.666665E-1,4.042494E2,1.7852121E2,4.9E1,2.4E1,2.006E1,3.1375E-3,1.1671332E0,5.3286614E0,1.3500999E1,5.1282052E-2,8.7E1,9E0,6.1E1,6E0,1.0948905E-2,1.1560693E-2,5.1365466E0,2.652768E-2,3.3968207E-1,5.3804377E-3,9E1,2.8174636E-1,4.042494E2,3E0,1.0731708E0,5.389908E-1,2.1320028E0,3.0695539E0,8.56E2,6.093554E-1,3.501E3,2.4439616E0,6.4889604E-1,-3.2245934E-2,-8.694417E-3,-2.3801984E-2,-1.4750133E-2,-2.9309962E-3,3.9131564E-1,2.1135917E-2,1.9524786E-1,1.8902642E-1,5.6218165E-1,-5.4118108E-2,9.259292E-2,7.1804965E-1,3.4305674E-1,2.3463931E-2,3.0819252E-1,1.915328E-1,4.5973608E-1,1.2506086E0,2.2159278E0],"split_indices":[3,5,5,5,1,5,1,1,3,3,2,5,0,0,0,5,3,3,3,3,0,0,0,1,0,5,3,5,1,3,5,0,0,5,4,0,4,0,0,0,0,0,0,0,0,0,0,0,0,0,0,0,0,0,0,0,0,0,0],"split_type":[0,0,0,0,0,0,0,0,0,0,0,0,0,0,0,0,0,0,0,0,0,0,0,0,0,0,0,0,0,0,0,0,0,0,0,0,0,0,0,0,0,0,0,0,0,0,0,0,0,0,0,0,0,0,0,0,0,0,0],"sum_hessian":[6.986E3,6.968E3,1.8E1,6.908E3,6E1,1.2E1,6E0,6.842E3,6.6E1,5.2E1,8E0,1E1,2E0,4E0,2E0,6.708E3,1.34E2,6.2E1,4E0,3.8E1,1.4E1,3E0,5E0,6E0,4E0,5.419E3,1.289E3,1.01E2,3.3E1,4.9E1,1.3E1,1E0,3E0,2.1E1,1.7E1,2E0,1.2E1,2E0,1E0,5E0,1E0,4.801E3,6.18E2,1.276E3,1.3E1,8.4E1,1.7E1,2E1,1.3E1,2.9E1,2E1,5E0,8E0,1.9E1,2E0,7E0,1E1,7E0,5E0],"tree_param":{"num_deleted":"0","num_feature":"6","num_nodes":"59","size_leaf_vector":"1"}},{"base_weights":[7.957237E-2,-1.6292242E-2,3.5237514E1,-1.1287813E-1,1.0923513E1,3.566645E0,8.902091E1,-1.5023284E-1,1.5486747E0,5.718194E0,4.0363342E1,3.584877E-1,8.627999E0,4.9023676E0,1.2600934E1,-1.606372E-1,2.549874E0,5.496961E-1,1.3157617E1,1.8674837E0,1.5348827E1,1.9910992E1,4.727102E0,-2.7696005E-1,1.7217033E-1,3.4867555E-1,1.0893244E0,-1.9663347E-1,1.4742258E-1,6.4478207E-1,5.08911E0,-2.8630513E-1,2.5957065E0,8.451055E0,2.0457978E0,8.072504E-1,3.7030969E0,1.1512524E1,2.071893E0,2.2438314E0,6.1645126E-1,-2.9558772E-2,-8.259696E-3,-2.3354854E-2,-1.201671E-2,-3.1359529E-3,1.9385271E-1,2.3344573E-2,2.3494244E-1,3.0985856E-1,6.858022E-1,-6.614296E-2,1.9521482E-2,1.7499231E-1,3.6868173E-1,9.046945E-1,1.8419647E-1,-1.9202847E-2,1.4438014E-1,5.1534336E-2,4.191444E-1,5.1936847E-1,1.4381334E0],"categories":[],"categories_nodes":[],"categories_segments":[],"categories_sizes":[],"default_left":[0,0,0,0,0,0,0,0,0,0,0,0,0,0,0,0,0,0,0,0,0,0,0,0,0,0,0,0,0,0,0,0,0,0,0,0,0,0,0,0,0,0,0,0,0,0,0,0,0,0,0,0,0,0,0,0,0,0,0,0,0,0,0],"id":21,"left_children":[1,3,5,7,9,11,13,15,17,19,21,23,25,-1,-1,27,29,31,33,35,37,39,-1,41,-1,-1,-1,43,45,47,49,51,53,55,-1,57,59,61,-1,-1,-1,-1,-1,-1,-1,-1,-1,-1,-1,-1,-1,-1,-1,-1,-1,-1,-1,-1,-1,-1,-1,-1,-1],"loss_changes":[2.3549576E4,7.364893E3,3.2046467E4,4.2905237E2,9.117062E3,2.0799605E2,4.1786016E3,1.902613E2,1.755524E3,1.9368293E3,3.3029102E2,8.273113E0,2.024878E1,0E0,0E0,7.469124E1,1.2249304E2,2.4191904E2,2.3942383E2,7.291164E1,7.0493164E1,6.4575195E-1,0E0,9.291172E-4,0E0,0E0,0E0,1.6990387E1,2.258141E2,1.0670439E1,1.7481537E1,1.8372742E1,3.1384949E1,1.8780457E1,0E0,1.6815643E1,1.9634186E1,1.2471094E2,0E0,0E0,0E0,0E0,0E0,0E0,0E0,0E0,0E0,0E0,0E0,0E0,0E0,0E0,0E0,0E0,0E0,0E0,0E0,0E0,0E0,0E0,0E0,0E0,0E0],"parents":[2147483647,0,0,1,1,2,2,3,3,4,4,5,5,6,6,7,7,8,8,9,9,10,10,11,11,12,12,15,15,16,16,17,17,18,18,19,19,20,20,21,21,23,23,27,27,28,28,29,29,30,30,31,31,32,32,33,33,35,35,36,36,37,37],"right_children":[2,4,6,8,10,12,14,16,18,20,22,24,26,-1,-1,28,30,32,34,36,38,40,-1,42,-1,-1,-1,44,46,48,50,52,54,56,-1,58,60,62,-1,-1,-1,-1,-1,-1,-1,-1,-1,-1,-1,-1,-1,-1,-1,-1,-1,-1,-1,-1,-1,-1,-1,-1,-1],"split_conditions":[2.36E2,1.5007994E0,2.5E-1,3.691195E-1,1.7852121E2,8.5189E-2,4.042494E2,5.537998E2,2.9E1,2.4E1,1.8409576E0,3.1375E-3,1.666665E-1,4.9023676E0,1.2600934E1,3.3E1,1.2752E4,7E0,9.4E1,1.959678E0,7.4E1,1.1666667E-2,4.727102E0,2.652768E-2,1.7217033E-1,3.4867555E-1,1.0893244E0,1.1E1,9.375E-2,2.5012845E-1,1.92947E-1,3E0,1.1E1,3.1746034E-2,2.0457978E0,2E0,5.8479533E-3,1.8409576E0,2.071893E0,2.2438314E0,6.1645126E-1,-2.9558772E-2,-8.259696E-3,-2.3354854E-2,-1.201671E-2,-3.1359529E-3,1.9385271E-1,2.3344573E-2,2.3494244E-1,3.0985856E-1,6.858022E-1,-6.614296E-2,1.9521482E-2,1.7499231E-1,3.6868173E-1,9.046945E-1,1.8419647E-1,-1.9202847E-2,1.4438014E-1,5.1534336E-2,4.191444E-1,5.1936847E-1,1.4381334E0],"split_indices":[3,5,5,5,1,5,1,1,3,3,5,5,5,0,0,3,4,3,3,2,3,0,0,1,0,0,0,3,5,5,5,3,3,0,0,3,0,5,0,0,0,0,0,0,0,0,0,0,0,0,0,0,0,0,0,0,0,0,0,0,0,0,0],"split_type":[0,0,0,0,0,0,0,0,0,0,0,0,0,0,0,0,0,0,0,0,0,0,0,0,0,0,0,0,0,0,0,0,0,0,0,0,0,0,0,0,0,0,0,0,0,0,0,0,0,0,0,0,0,0,0,0,0,0,0,0,0,0,0],"sum_hessian":[6.986E3,6.968E3,1.8E1,6.908E3,6E1,1.2E1,6E0,6.757E3,1.51E2,5.2E1,8E0,8E0,4E0,4E0,2E0,6.732E3,2.5E1,1.4E2,1.1E1,3.8E1,1.4E1,3E0,5E0,6E0,2E0,2E0,2E0,6.028E3,7.04E2,1.5E1,1E1,1E2,4E1,8E0,3E0,2.5E1,1.3E1,1E1,4E0,2E0,1E0,5E0,1E0,4.064E3,1.964E3,6.41E2,6.3E1,1.3E1,2E0,6E0,4E0,5.6E1,4.4E1,2.4E1,1.6E1,7E0,1E0,1E1,1.5E1,2E0,1.1E1,4E0,6E0],"tree_param":{"num_deleted":"0","num_feature":"6","num_nodes":"63","size_leaf_vector":"1"}},{"base_weights":[7.6814674E-2,-1.2187249E-2,3.2717743E1,-1.0086068E-1,1.0031369E1,3.3309307E0,8.2619286E1,-1.2356302E-1,2.219333E0,5.2336426E0,3.7170048E1,3.3756685E-1,8.052799E0,4.5101776E0,1.1760871E1,-1.4106734E-1,1.4795153E0,1.0392278E0,1.6644789E1,1.6960138E0,1.4082568E1,1.8293145E0,4.355964E0,-2.546667E-2,1.6069227E-1,3.2543057E-1,1.0167027E0,-1.7338638E-1,1.3372901E-1,3.937272E-1,3.7251687E0,2.371917E-1,5.2663E0,4.668064E-1,1.8471955E0,1.0586424E0,4.458477E0,1.1268838E1,2.1581213E0,-1.8708685E-2,-2.8337636E-3,4.5254664E-3,8.047361E-2,-5.1921816E-4,1.1253679E-1,2.856505E-1,6.4547896E-1,-1.3429577E-2,1.8851662E-1,7.95837E-1,2.9756463E-1,3.0490866E-2,3.8146666E-1,7.953229E-2,4.9364492E-1,6.2385195E-1,1.3632972E0],"categories":[],"categories_nodes":[],"categories_segments":[],"categories_sizes":[],"default_left":[0,0,0,0,0,0,0,0,0,0,0,0,0,0,0,0,0,0,0,0,0,0,0,0,0,0,0,0,0,0,0,0,0,0,0,0,0,0,0,0,0,0,0,0,0,0,0,0,0,0,0,0,0,0,0,0,0],"id":22,"left_children":[1,3,5,7,9,11,13,15,17,19,21,23,25,-1,-1,27,29,31,33,35,37,-1,-1,-1,-1,-1,-1,39,41,43,45,47,49,-1,-1,51,53,55,-1,-1,-1,-1,-1,-1,-1,-1,-1,-1,-1,-1,-1,-1,-1,-1,-1,-1,-1],"loss_changes":[2.029837E4,6.207579E3,2.7587299E4,3.6419763E2,7.7479053E3,1.8102715E2,3.8846484E3,1.9222873E2,1.1232803E3,1.6352393E3,2.8869824E2,7.175026E0,1.7638947E1,0E0,0E0,6.014859E1,1.7896777E2,2.1233755E2,2.3189087E1,6.3947952E1,7.329248E1,0E0,0E0,0E0,0E0,0E0,0E0,1.2033371E1,4.229219E1,1.4890991E1,3.846881E1,3.3312073E1,3.798471E1,0E0,0E0,6.738805E1,8.330124E0,6.95509E1,0E0,0E0,0E0,0E0,0E0,0E0,0E0,0E0,0E0,0E0,0E0,0E0,0E0,0E0,0E0,0E0,0E0,0E0,0E0],"parents":[2147483647,0,0,1,1,2,2,3,3,4,4,5,5,6,6,7,7,8,8,9,9,10,10,11,11,12,12,15,15,16,16,17,17,18,18,19,19,20,20,27,27,28,28,29,29,30,30,31,31,32,32,35,35,36,36,37,37],"right_children":[2,4,6,8,10,12,14,16,18,20,22,24,26,-1,-1,28,30,32,34,36,38,-1,-1,-1,-1,-1,-1,40,42,44,46,48,50,-1,-1,52,54,56,-1,-1,-1,-1,-1,-1,-1,-1,-1,-1,-1,-1,-1,-1,-1,-1,-1,-1,-1],"split_conditions":[2.36E2,1.5007994E0,2.5E-1,7.5E-1,1.7852121E2,8.5189E-2,4.042494E2,2.8345236E2,4.9E1,2.4E1,2.006E1,3.1375E-3,1.666665E-1,4.5101776E0,1.1760871E1,3.795E1,8.4E1,2E1,6.1E1,3.0695539E0,1E2,1.8293145E0,4.355964E0,-2.546667E-2,1.6069227E-1,3.2543057E-1,1.0167027E0,3.2E1,5.91E3,1.9965565E-1,2.0620364E-1,7E0,1.0731708E0,4.668064E-1,1.8471955E0,1.027E3,3E0,1.8409576E0,2.1581213E0,-1.8708685E-2,-2.8337636E-3,4.5254664E-3,8.047361E-2,-5.1921816E-4,1.1253679E-1,2.856505E-1,6.4547896E-1,-1.3429577E-2,1.8851662E-1,7.95837E-1,2.9756463E-1,3.0490866E-2,3.8146666E-1,7.953229E-2,4.9364492E-1,6.2385195E-1,1.3632972E0],"split_indices":[3,5,5,5,1,5,1,1,3,3,2,5,5,0,0,1,3,3,3,5,3,0,0,0,0,0,0,3,4,5,5,3,5,0,0,4,3,5,0,0,0,0,0,0,0,0,0,0,0,0,0,0,0,0,0,0,0],"split_type":[0,0,0,0,0,0,0,0,0,0,0,0,0,0,0,0,0,0,0,0,0,0,0,0,0,0,0,0,0,0,0,0,0,0,0,0,0,0,0,0,0,0,0,0,0,0,0,0,0,0,0,0,0,0,0,0,0],"sum_hessian":[6.986E3,6.968E3,1.8E1,6.908E3,6E1,1.2E1,6E0,6.842E3,6.6E1,5.2E1,8E0,8E0,4E0,4E0,2E0,6.769E3,7.3E1,6.2E1,4E0,3.8E1,1.4E1,3E0,5E0,6E0,2E0,2E0,2E0,6.057E3,7.12E2,5E1,2.3E1,5.3E1,9E0,1E0,3E0,3.2E1,6E0,1.2E1,2E0,5.534E3,5.23E2,6.3E2,8.2E1,3.3E1,1.7E1,1.9E1,4E0,4.4E1,9E0,3E0,6E0,2.6E1,6E0,1E0,5E0,5E0,7E0],"tree_param":{"num_deleted":"0","num_feature":"6","num_nodes":"57","size_leaf_vector":"1"}},{"base_weights":[7.396407E-2,-8.671949E-3,3.0380093E1,-9.009591E-2,9.213735E0,3.1114802E0,7.6681786E1,-1.22203246E-1,1.3380058E0,4.235708E0,3.1456064E1,3.1883526E-1,7.515945E0,4.1493626E0,1.0976813E1,-1.3102296E-1,2.166464E0,4.726474E-1,1.1394466E1,1.5516725E0,1.1961992E1,1.998128E1,4.122955E0,-2.3283811E-1,1.4997946E-1,3.0373517E-1,9.4892234E-1,-1.6037498E-1,1.20174766E-1,5.3289855E-1,4.345608E0,-2.4873304E-1,2.2381785E0,7.2015495E0,1.7979912E0,9.652618E-1,4.094512E0,6.8427896E0,1.878416E0,1.1741812E0,2.70533E0,-2.497332E-2,-6.573379E-3,-1.922359E-2,-9.438265E-3,-9.277086E-3,1.3243936E-1,1.55218635E-2,2.117772E-1,2.58815E-1,5.9369284E-1,-5.8523625E-2,1.8303176E-2,1.5267213E-1,3.1527817E-1,8.084618E-1,2.7405423E-1,3.881503E-2,4.1194564E-1,7.555568E-2,4.5250782E-1,1.759758E-1,7.258199E-1],"categories":[],"categories_nodes":[],"categories_segments":[],"categories_sizes":[],"default_left":[0,0,0,0,0,0,0,0,0,0,0,0,0,0,0,0,0,0,0,0,0,0,0,0,0,0,0,0,0,0,0,0,0,0,0,0,0,0,0,0,0,0,0,0,0,0,0,0,0,0,0,0,0,0,0,0,0,0,0,0,0,0,0],"id":23,"left_children":[1,3,5,7,9,11,13,15,17,19,21,23,25,-1,-1,27,29,31,33,35,37,39,-1,41,-1,-1,-1,43,45,47,49,51,53,55,-1,57,59,61,-1,-1,-1,-1,-1,-1,-1,-1,-1,-1,-1,-1,-1,-1,-1,-1,-1,-1,-1,-1,-1,-1,-1,-1,-1],"loss_changes":[1.7498348E4,5.234026E3,2.3750482E4,3.1695865E2,6.6208584E3,1.5750504E2,3.5950547E3,1.3669675E2,1.3173857E3,1.0390576E3,4.0981543E2,6.2127438E0,1.5365448E1,0E0,0E0,4.9662773E1,9.0238365E1,1.8013708E2,2.018634E2,5.4202507E1,3.2547668E2,9.0232666E1,0E0,3.346771E-3,0E0,0E0,0E0,1.2658279E1,1.8090823E2,9.248478E0,1.5397812E1,1.4781433E1,2.1865326E1,1.3298126E1,0E0,5.8471664E1,6.6445312E0,6.23114E0,0E0,0E0,0E0,0E0,0E0,0E0,0E0,0E0,0E0,0E0,0E0,0E0,0E0,0E0,0E0,0E0,0E0,0E0,0E0,0E0,0E0,0E0,0E0,0E0,0E0],"parents":[2147483647,0,0,1,1,2,2,3,3,4,4,5,5,6,6,7,7,8,8,9,9,10,10,11,11,12,12,15,15,16,16,17,17,18,18,19,19,20,20,21,21,23,23,27,27,28,28,29,29,30,30,31,31,32,32,33,33,35,35,36,36,37,37],"right_children":[2,4,6,8,10,12,14,16,18,20,22,24,26,-1,-1,28,30,32,34,36,38,40,-1,42,-1,-1,-1,44,46,48,50,52,54,56,-1,58,60,62,-1,-1,-1,-1,-1,-1,-1,-1,-1,-1,-1,-1,-1,-1,-1,-1,-1,-1,-1,-1,-1,-1,-1,-1,-1],"split_conditions":[2.36E2,1.5007994E0,2.5E-1,3.691195E-1,6.324E3,8.5189E-2,4.042494E2,5.537998E2,2.9E1,2.4E1,1.8409576E0,3.1375E-3,1.666665E-1,4.1493626E0,1.0976813E1,3.3E1,1.2752E4,7E0,9.4E1,3.0695539E0,2E0,2.821E1,4.122955E0,2.652768E-2,1.4997946E-1,3.0373517E-1,9.4892234E-1,1.1E1,6.1531875E-2,2.5012845E-1,1.92947E-1,3E0,1.1E1,2.7027028E-2,1.7979912E0,1.3E1,3E0,1.618974E0,1.878416E0,1.1741812E0,2.70533E0,-2.497332E-2,-6.573379E-3,-1.922359E-2,-9.438265E-3,-9.277086E-3,1.3243936E-1,1.55218635E-2,2.117772E-1,2.58815E-1,5.9369284E-1,-5.8523625E-2,1.8303176E-2,1.5267213E-1,3.1527817E-1,8.084618E-1,2.7405423E-1,3.881503E-2,4.1194564E-1,7.555568E-2,4.5250782E-1,1.759758E-1,7.258199E-1],"split_indices":[3,5,5,5,4,5,1,1,3,3,5,5,5,0,0,3,4,3,3,5,5,2,0,1,0,0,0,3,5,5,5,3,3,0,0,3,3,5,0,0,0,0,0,0,0,0,0,0,0,0,0,0,0,0,0,0,0,0,0,0,0,0,0],"split_type":[0,0,0,0,0,0,0,0,0,0,0,0,0,0,0,0,0,0,0,0,0,0,0,0,0,0,0,0,0,0,0,0,0,0,0,0,0,0,0,0,0,0,0,0,0,0,0,0,0,0,0,0,0,0,0,0,0,0,0,0,0,0,0],"sum_hessian":[6.986E3,6.968E3,1.8E1,6.908E3,6E1,1.2E1,6E0,6.757E3,1.51E2,5E1,1E1,8E0,4E0,4E0,2E0,6.732E3,2.5E1,1.4E2,1.1E1,3.8E1,1.2E1,6E0,4E0,6E0,2E0,2E0,2E0,6.028E3,7.04E2,1.5E1,1E1,1E2,4E1,8E0,3E0,3.2E1,6E0,8E0,4E0,4E0,2E0,5E0,1E0,4.064E3,1.964E3,5.99E2,1.05E2,1.3E1,2E0,6E0,4E0,5.6E1,4.4E1,2.4E1,1.6E1,6E0,2E0,2.8E1,4E0,1E0,5E0,1E0,7E0],"tree_param":{"num_deleted":"0","num_feature":"6","num_nodes":"63","size_leaf_vector":"1"}},{"base_weights":[7.1253695E-2,-5.4738545E-3,2.8210361E1,-8.043752E-2,8.485173E0,2.905801E0,7.117449E1,-9.994449E-2,1.9130939E0,3.885844E0,2.9037956E1,3.00111E-1,7.0148826E0,3.817414E0,1.0245026E1,-1.1370913E-1,1.3151567E0,8.916611E-1,1.4400528E1,1.4216032E0,1.0979654E1,1.8500475E1,3.7982838E0,-2.1406095E-1,1.3998085E-1,2.834862E-1,8.8566095E-1,-1.4668575E-1,1.08345285E-1,3.7762594E-1,3.4525962E0,2.1159221E-1,4.474867E0,6.067528E-1,1.7933352E0,2.6656643E-2,2.292334E0,6.2587104E0,1.7281424E0,2.0132377E0,4.354538E-1,-2.2892209E-2,-6.2447074E-3,-1.586145E-2,-5.824164E-3,-9.696499E-5,2.2285692E-1,1.5182427E-2,1.1979097E-1,1.2644672E-1,4.0976748E-1,-1.2975074E-2,1.417105E-1,7.0017374E-1,2.3916745E-1,-4.2753153E-2,4.274176E-2,1.5856889E-1,4.147989E-1,4.1929355E-1,8.992615E-1],"categories":[],"categories_nodes":[],"categories_segments":[],"categories_sizes":[],"default_left":[0,0,0,0,0,0,0,0,0,0,0,0,0,0,0,0,0,0,0,0,0,0,0,0,0,0,0,0,0,0,0,0,0,0,0,0,0,0,0,0,0,0,0,0,0,0,0,0,0,0,0,0,0,0,0,0,0,0,0,0,0],"id":24,"left_children":[1,3,5,7,9,11,13,15,17,19,21,23,25,-1,-1,27,29,31,33,35,37,39,-1,41,-1,-1,-1,43,45,47,49,51,53,-1,-1,55,57,59,-1,-1,-1,-1,-1,-1,-1,-1,-1,-1,-1,-1,-1,-1,-1,-1,-1,-1,-1,-1,-1,-1,-1],"loss_changes":[1.5085401E4,4.4363813E3,2.0449764E4,2.6886667E2,5.6534326E3,1.3708566E2,3.3138281E3,1.3343996E2,8.4174963E2,8.75915E2,3.341211E2,5.388547E0,1.3385025E1,0E0,0E0,4.96485E1,1.3095462E2,1.5257324E2,3.838391E1,4.7309196E1,2.7859448E2,7.392627E1,0E0,1.4765859E-3,0E0,0E0,0E0,6.217552E0,2.0326633E2,8.523537E0,2.304892E1,2.2404509E1,3.5893677E1,0E0,0E0,3.0950685E0,2.4893532E1,1.312323E1,0E0,0E0,0E0,0E0,0E0,0E0,0E0,0E0,0E0,0E0,0E0,0E0,0E0,0E0,0E0,0E0,0E0,0E0,0E0,0E0,0E0,0E0,0E0],"parents":[2147483647,0,0,1,1,2,2,3,3,4,4,5,5,6,6,7,7,8,8,9,9,10,10,11,11,12,12,15,15,16,16,17,17,18,18,19,19,20,20,21,21,23,23,27,27,28,28,29,29,30,30,31,31,32,32,35,35,36,36,37,37],"right_children":[2,4,6,8,10,12,14,16,18,20,22,24,26,-1,-1,28,30,32,34,36,38,40,-1,42,-1,-1,-1,44,46,48,50,52,54,-1,-1,56,58,60,-1,-1,-1,-1,-1,-1,-1,-1,-1,-1,-1,-1,-1,-1,-1,-1,-1,-1,-1,-1,-1,-1,-1],"split_conditions":[2.36E2,1.5007994E0,2.5E-1,7.5E-1,6.324E3,8.5189E-2,4.042494E2,2.9928555E2,4.9E1,2.4E1,2.3903107E2,3.1375E-3,1.666665E-1,3.817414E0,1.0245026E1,8.695652E-2,8.7E1,2E1,9.4E1,4E0,2E0,2.2741539E2,3.7982838E0,2.652768E-2,1.3998085E-1,2.834862E-1,8.8566095E-1,3.1E1,4.7E1,3E-1,1.2995453E-1,5E0,1.0731708E0,6.067528E-1,1.7933352E0,2.4812424E0,3.0695539E0,2.096436E-2,1.7281424E0,2.0132377E0,4.354538E-1,-2.2892209E-2,-6.2447074E-3,-1.586145E-2,-5.824164E-3,-9.696499E-5,2.2285692E-1,1.5182427E-2,1.1979097E-1,1.2644672E-1,4.0976748E-1,-1.2975074E-2,1.417105E-1,7.0017374E-1,2.3916745E-1,-4.2753153E-2,4.274176E-2,1.5856889E-1,4.147989E-1,4.1929355E-1,8.992615E-1],"split_indices":[3,5,5,5,4,5,1,1,3,3,1,5,5,0,0,5,3,3,3,3,5,1,0,1,0,0,0,3,3,5,5,3,5,0,0,5,5,0,0,0,0,0,0,0,0,0,0,0,0,0,0,0,0,0,0,0,0,0,0,0,0],"split_type":[0,0,0,0,0,0,0,0,0,0,0,0,0,0,0,0,0,0,0,0,0,0,0,0,0,0,0,0,0,0,0,0,0,0,0,0,0,0,0,0,0,0,0,0,0,0,0,0,0,0,0,0,0,0,0,0,0,0,0,0,0],"sum_hessian":[6.986E3,6.968E3,1.8E1,6.908E3,6E1,1.2E1,6E0,6.842E3,6.6E1,5E1,1E1,8E0,4E0,4E0,2E0,6.777E3,6.5E1,6.2E1,4E0,3.8E1,1.2E1,6E0,4E0,6E0,2E0,2E0,2E0,5.901E3,8.76E2,4.6E1,1.9E1,5.3E1,9E0,2E0,2E0,1.5E1,2.3E1,8E0,4E0,5E0,1E0,5E0,1E0,5.199E3,7.02E2,8.34E2,4.2E1,3.7E1,9E0,5E0,1.4E1,4.2E1,1.1E1,3E0,6E0,7E0,8E0,1.8E1,5E0,6E0,2E0],"tree_param":{"num_deleted":"0","num_feature":"6","num_nodes":"61","size_leaf_vector":"1"}},{"base_weights":[6.8357594E-2,-2.8878127E-3,2.6196825E1,-7.176554E-2,7.7984095E0,2.7136817E0,6.606597E1,-9.932808E-2,1.1541513E0,4.0235367E0,2.9161728E1,2.824159E-1,6.5472236E0,3.5120208E0,9.562026E0,-1.06322855E-1,1.9535475E0,4.0116024E-1,9.905618E0,1.2941442E0,1.0851721E1,1.3806149E1,3.4538496E0,-1.9681728E-1,1.306488E-1,2.6458713E-1,8.2661676E-1,-1.2266793E-1,2.2724672E-1,6.1109614E-1,3.9739056E0,-2.2280179E-1,1.928453E0,6.2390294E0,1.5679038E0,5.740452E-1,2.8665297E0,8.068451E0,1.64886E0,1.5650325E0,4.1368103E-1,-2.0984525E-2,-5.932474E-3,-1.5377951E-2,-5.0016004E-3,1.0123203E-2,9.619581E-2,-4.984533E-2,1.21571615E-1,5.0126797E-1,2.1403503E-1,-5.2109208E-2,1.5998373E-2,1.5005401E-1,3.1049296E-1,6.68279E-1,1.3444729E-1,3.1117112E-3,3.0652907E-1,3.9753184E-2,3.3205763E-1,8.808884E-1,2.910858E-1],"categories":[],"categories_nodes":[],"categories_segments":[],"categories_sizes":[],"default_left":[0,0,0,0,0,0,0,0,0,0,0,0,0,0,0,0,0,0,0,0,0,0,0,0,0,0,0,0,0,0,0,0,0,0,0,0,0,0,0,0,0,0,0,0,0,0,0,0,0,0,0,0,0,0,0,0,0,0,0,0,0,0,0],"id":25,"left_children":[1,3,5,7,9,11,13,15,17,19,21,23,25,-1,-1,27,29,31,33,35,37,39,-1,41,-1,-1,-1,43,45,47,49,51,53,55,-1,57,59,61,-1,-1,-1,-1,-1,-1,-1,-1,-1,-1,-1,-1,-1,-1,-1,-1,-1,-1,-1,-1,-1,-1,-1,-1,-1],"loss_changes":[1.300661E4,3.7452522E3,1.7609523E4,2.3356543E2,4.8019395E3,1.1931564E2,3.0438574E3,9.7248566E1,9.976723E2,9.7370636E2,2.6622656E2,4.674063E0,1.1659821E1,0E0,0E0,3.675403E1,5.995291E1,1.347988E2,1.56203E2,4.2513138E1,1.02296875E2,6.585327E0,0E0,8.973479E-5,0E0,0E0,0E0,1.4508064E1,2.9066711E1,1.0668816E1,6.4129486E0,1.1615667E1,1.5981552E1,1.0563263E1,0E0,3.7776493E1,1.2132454E1,2.0184814E1,0E0,0E0,0E0,0E0,0E0,0E0,0E0,0E0,0E0,0E0,0E0,0E0,0E0,0E0,0E0,0E0,0E0,0E0,0E0,0E0,0E0,0E0,0E0,0E0,0E0],"parents":[2147483647,0,0,1,1,2,2,3,3,4,4,5,5,6,6,7,7,8,8,9,9,10,10,11,11,12,12,15,15,16,16,17,17,18,18,19,19,20,20,21,21,23,23,27,27,28,28,29,29,30,30,31,31,32,32,33,33,35,35,36,36,37,37],"right_children":[2,4,6,8,10,12,14,16,18,20,22,24,26,-1,-1,28,30,32,34,36,38,40,-1,42,-1,-1,-1,44,46,48,50,52,54,56,-1,58,60,62,-1,-1,-1,-1,-1,-1,-1,-1,-1,-1,-1,-1,-1,-1,-1,-1,-1,-1,-1,-1,-1,-1,-1,-1,-1],"split_conditions":[2.36E2,1.5007994E0,2.5E-1,3.691195E-1,1.7852121E2,8.5189E-2,4.042494E2,1.72E2,2.9E1,2.4E1,1.8409576E0,3.1375E-3,1.666665E-1,3.5120208E0,9.562026E0,8.302098E1,1.3333334E-1,7E0,9.4E1,8.75E2,2.821E1,1.1666667E-2,3.4538496E0,2.652768E-2,1.306488E-1,2.6458713E-1,8.2661676E-1,1.4E1,8.2E1,1.7488536E0,4.962E1,3E0,1.342E3,3.1746034E-2,1.5679038E0,3.0695539E0,5.01002E-3,2.261E1,1.64886E0,1.5650325E0,4.1368103E-1,-2.0984525E-2,-5.932474E-3,-1.5377951E-2,-5.0016004E-3,1.0123203E-2,9.619581E-2,-4.984533E-2,1.21571615E-1,5.0126797E-1,2.1403503E-1,-5.2109208E-2,1.5998373E-2,1.5005401E-1,3.1049296E-1,6.68279E-1,1.3444729E-1,3.1117112E-3,3.0652907E-1,3.9753184E-2,3.3205763E-1,8.808884E-1,2.910858E-1],"split_indices":[3,5,5,5,1,5,1,3,3,3,5,5,5,0,0,1,5,3,3,4,2,0,0,1,0,0,0,3,3,1,2,3,4,0,0,5,0,2,0,0,0,0,0,0,0,0,0,0,0,0,0,0,0,0,0,0,0,0,0,0,0,0,0],"split_type":[0,0,0,0,0,0,0,0,0,0,0,0,0,0,0,0,0,0,0,0,0,0,0,0,0,0,0,0,0,0,0,0,0,0,0,0,0,0,0,0,0,0,0,0,0,0,0,0,0,0,0,0,0,0,0,0,0,0,0,0,0,0,0],"sum_hessian":[6.986E3,6.968E3,1.8E1,6.908E3,6E1,1.2E1,6E0,6.757E3,1.51E2,5.2E1,8E0,8E0,4E0,4E0,2E0,6.735E3,2.2E1,1.4E2,1.1E1,3.8E1,1.4E1,3E0,5E0,6E0,2E0,2E0,2E0,6.421E3,3.14E2,1.4E1,8E0,1E2,4E1,8E0,3E0,2.7E1,1.1E1,1.1E1,3E0,2E0,1E0,5E0,1E0,4.495E3,1.926E3,2.69E2,4.5E1,5E0,9E0,4E0,4E0,5.6E1,4.4E1,3.1E1,9E0,7E0,1E0,2.3E1,4E0,2E0,9E0,9E0,2E0],"tree_param":{"num_deleted":"0","num_feature":"6","num_nodes":"63","size_leaf_vector":"1"}},{"base_weights":[6.536781E-2,-7.906152E-4,2.4328142E1,-6.405808E-2,7.165041E0,2.5342314E0,6.13271E1,-8.0836125E-2,1.6505122E0,3.2063684E0,2.486752E1,5.8097917E-1,6.783804E0,3.2310588E0,8.924559E0,-9.0146355E-2,1.3935752E0,8.537507E-1,1.3986069E1,1.1822028E0,9.032222E0,1.58211775E1,3.2558892E0,-1.8098084E-2,1.7691644E-1,7.7150893E-1,1.9949742E-1,-1.2070427E-1,1.1215696E-1,3.8434514E-1,3.45667E0,1.8540639E-1,4.0571003E0,6.201643E-1,1.8669674E0,6.230707E-1,2.9767463E0,4.9765353E0,1.4526013E0,1.714805E0,3.92997E-1,-1.3129222E-2,-4.9444307E-3,2.5841742E-4,1.8145455E-1,-7.329794E-2,6.3712925E-2,2.165933E-1,6.142029E-1,-4.931776E-2,5.9907865E-2,-5.709982E-2,4.5770097E-1,1.9314284E-2,2.820067E-1,1.1387932E-1,3.7059242E-1,3.162749E-1,7.549858E-1],"categories":[],"categories_nodes":[],"categories_segments":[],"categories_sizes":[],"default_left":[0,0,0,0,0,0,0,0,0,0,0,0,0,0,0,0,0,0,0,0,0,0,0,0,0,0,0,0,0,0,0,0,0,0,0,0,0,0,0,0,0,0,0,0,0,0,0,0,0,0,0,0,0,0,0,0,0,0,0],"id":26,"left_children":[1,3,5,7,9,11,13,15,17,19,21,23,25,-1,-1,27,29,31,33,35,37,39,-1,-1,-1,-1,-1,41,43,45,47,49,51,-1,-1,53,55,57,-1,-1,-1,-1,-1,-1,-1,-1,-1,-1,-1,-1,-1,-1,-1,-1,-1,-1,-1,-1,-1],"loss_changes":[1.121546E4,3.1599526E3,1.5165272E4,1.9888556E2,4.195043E3,1.0396508E2,2.7870996E3,9.4060196E1,6.465687E2,5.907393E2,2.5024658E2,9.37368E0,2.4476624E0,0E0,0E0,4.20571E1,8.8203354E1,1.3626797E2,3.0054077E1,3.727737E1,2.1736499E2,4.3055542E1,0E0,0E0,0E0,0E0,0E0,4.4518356E0,1.6657149E2,8.94026E0,3.5222076E1,1.5453868E1,2.9081589E1,0E0,0E0,2.8736378E1,7.841461E0,1.812883E1,0E0,0E0,0E0,0E0,0E0,0E0,0E0,0E0,0E0,0E0,0E0,0E0,0E0,0E0,0E0,0E0,0E0,0E0,0E0,0E0,0E0],"parents":[2147483647,0,0,1,1,2,2,3,3,4,4,5,5,6,6,7,7,8,8,9,9,10,10,11,11,12,12,15,15,16,16,17,17,18,18,19,19,20,20,21,21,27,27,28,28,29,29,30,30,31,31,32,32,35,35,36,36,37,37],"right_children":[2,4,6,8,10,12,14,16,18,20,22,24,26,-1,-1,28,30,32,34,36,38,40,-1,-1,-1,-1,-1,42,44,46,48,50,52,-1,-1,54,56,58,-1,-1,-1,-1,-1,-1,-1,-1,-1,-1,-1,-1,-1,-1,-1,-1,-1,-1,-1,-1,-1],"split_conditions":[2.36E2,1.5007994E0,2.5E-1,7.5E-1,6.324E3,1.267276E-1,4.042494E2,4.042494E2,6.1E1,2.4E1,2.3903107E2,3.1375E-3,1.1560693E-2,3.2310588E0,8.924559E0,8.695652E-2,1.787E1,2E1,1.2931035E-2,1E1,2E0,2.2741539E2,3.2558892E0,-1.8098084E-2,1.7691644E-1,7.7150893E-1,1.9949742E-1,3.14944E-2,4.229E3,1.1E1,2.0620364E-1,2E0,2.99E0,6.201643E-1,1.8669674E0,3.0695539E0,1.8409576E0,2.096436E-2,1.4526013E0,1.714805E0,3.92997E-1,-1.3129222E-2,-4.9444307E-3,2.5841742E-4,1.8145455E-1,-7.329794E-2,6.3712925E-2,2.165933E-1,6.142029E-1,-4.931776E-2,5.9907865E-2,-5.709982E-2,4.5770097E-1,1.9314284E-2,2.820067E-1,1.1387932E-1,3.7059242E-1,3.162749E-1,7.549858E-1],"split_indices":[3,5,5,5,4,5,1,1,3,3,1,5,0,0,0,5,2,3,0,3,5,1,0,0,0,0,0,5,4,3,5,3,2,0,0,5,5,0,0,0,0,0,0,0,0,0,0,0,0,0,0,0,0,0,0,0,0,0,0],"split_type":[0,0,0,0,0,0,0,0,0,0,0,0,0,0,0,0,0,0,0,0,0,0,0,0,0,0,0,0,0,0,0,0,0,0,0,0,0,0,0,0,0,0,0,0,0,0,0,0,0,0,0,0,0,0,0,0,0,0,0],"sum_hessian":[6.986E3,6.968E3,1.8E1,6.908E3,6E1,1.2E1,6E0,6.842E3,6.6E1,5E1,1E1,9E0,3E0,4E0,2E0,6.8E3,4.2E1,6.3E1,3E0,3.8E1,1.2E1,6E0,4E0,6E0,3E0,2E0,1E0,5.908E3,8.92E2,2.9E1,1.3E1,5.3E1,1E1,2E0,1E0,3E1,8E0,8E0,4E0,5E0,1E0,5.143E3,7.65E2,8.39E2,5.3E1,5E0,2.4E1,1E1,3E0,2E1,3.3E1,1E0,9E0,2.6E1,4E0,3E0,5E0,6E0,2E0],"tree_param":{"num_deleted":"0","num_feature":"6","num_nodes":"59","size_leaf_vector":"1"}},{"base_weights":[6.2529616E-2,1.0902182E-3,2.2594564E1,-5.7090234E-2,6.5907235E0,2.367718E0,5.6930912E1,-8.076353E-2,9.958129E-1,2.950627E0,2.286838E1,2.384507E-1,5.7268553E0,2.972575E0,8.329588E0,-8.709061E-2,1.5608119E0,3.4315726E-1,8.581532E0,9.84061E-1,8.07769E0,1.4371743E1,3.0189993E0,-1.6546819E-1,1.1014446E-1,2.3440082E-1,7.200751E-1,-1.07848585E-1,9.055039E-2,3.5946375E-1,3.1663353E0,-2.0476379E-1,1.6845443E0,5.292725E0,1.3835964E0,5.295941E-1,2.9210439E0,4.6267996E0,1.3363932E0,7.7698153E-1,2.0584376E0,-1.7727641E-2,-4.730946E-3,-1.1544303E-2,5.842946E-3,-8.599192E-3,8.947036E-2,7.450189E-4,1.8823725E-1,1.7164867E-1,4.562857E-1,-4.621741E-2,1.2583961E-2,1.9613707E-1,2.9746402E-2,6.022497E-1,1.8256836E-1,2.2165796E-2,3.4324247E-1,4.0214013E-2,3.273838E-1,3.1410488E-1,7.0465344E-1],"categories":[],"categories_nodes":[],"categories_segments":[],"categories_sizes":[],"default_left":[0,0,0,0,0,0,0,0,0,0,0,0,0,0,0,0,0,0,0,0,0,0,0,0,0,0,0,0,0,0,0,0,0,0,0,0,0,0,0,0,0,0,0,0,0,0,0,0,0,0,0,0,0,0,0,0,0,0,0,0,0,0,0],"id":27,"left_children":[1,3,5,7,9,11,13,15,17,19,21,23,25,-1,-1,27,29,31,33,35,37,39,-1,41,-1,-1,-1,43,45,47,49,51,53,55,-1,57,59,61,-1,-1,-1,-1,-1,-1,-1,-1,-1,-1,-1,-1,-1,-1,-1,-1,-1,-1,-1,-1,-1,-1,-1,-1,-1],"loss_changes":[9.672461E3,2.6722063E3,1.3061008E4,1.7229205E2,3.5469104E3,9.161694E1,2.5448105E3,7.032703E1,7.4958624E2,5.0626907E2,2.5041748E2,3.31947E0,8.0512085E0,0E0,0E0,2.4837482E1,4.901042E1,1.039763E2,1.3413971E2,3.1904224E1,1.9355927E2,1.2717053E2,0E0,1.3798475E-3,0E0,0E0,0E0,7.620102E0,1.0016372E2,8.56333E0,1.4440117E1,8.653334E0,1.5159775E1,1.1776184E1,0E0,2.7843546E1,4.9040375E0,1.38177185E1,0E0,0E0,0E0,0E0,0E0,0E0,0E0,0E0,0E0,0E0,0E0,0E0,0E0,0E0,0E0,0E0,0E0,0E0,0E0,0E0,0E0,0E0,0E0,0E0,0E0],"parents":[2147483647,0,0,1,1,2,2,3,3,4,4,5,5,6,6,7,7,8,8,9,9,10,10,11,11,12,12,15,15,16,16,17,17,18,18,19,19,20,20,21,21,23,23,27,27,28,28,29,29,30,30,31,31,32,32,33,33,35,35,36,36,37,37],"right_children":[2,4,6,8,10,12,14,16,18,20,22,24,26,-1,-1,28,30,32,34,36,38,40,-1,42,-1,-1,-1,44,46,48,50,52,54,56,-1,58,60,62,-1,-1,-1,-1,-1,-1,-1,-1,-1,-1,-1,-1,-1,-1,-1,-1,-1,-1,-1,-1,-1,-1,-1,-1,-1],"split_conditions":[2.36E2,1.5007994E0,2.5E-1,3.691195E-1,6.324E3,8.5189E-2,4.042494E2,5.537998E2,2.9E1,2E1,1.8409576E0,3.1375E-3,1.666665E-1,2.972575E0,8.329588E0,3.3E1,1.2752E4,7E0,9.4E1,3.0695539E0,2E0,2.821E1,3.0189993E0,2.652768E-2,1.1014446E-1,2.3440082E-1,7.200751E-1,1.6860466E-1,5.58425E-2,2.5012845E-1,1.92947E-1,3E0,1.0731708E0,2.7027028E-2,1.3835964E0,1.784E3,3E0,2.096436E-2,1.3363932E0,7.7698153E-1,2.0584376E0,-1.7727641E-2,-4.730946E-3,-1.1544303E-2,5.842946E-3,-8.599192E-3,8.947036E-2,7.450189E-4,1.8823725E-1,1.7164867E-1,4.562857E-1,-4.621741E-2,1.2583961E-2,1.9613707E-1,2.9746402E-2,6.022497E-1,1.8256836E-1,2.2165796E-2,3.4324247E-1,4.0214013E-2,3.273838E-1,3.1410488E-1,7.0465344E-1],"split_indices":[3,5,5,5,4,5,1,1,3,3,5,5,5,0,0,3,4,3,3,5,5,2,0,1,0,0,0,5,5,5,5,3,5,0,0,4,3,0,0,0,0,0,0,0,0,0,0,0,0,0,0,0,0,0,0,0,0,0,0,0,0,0,0],"split_type":[0,0,0,0,0,0,0,0,0,0,0,0,0,0,0,0,0,0,0,0,0,0,0,0,0,0,0,0,0,0,0,0,0,0,0,0,0,0,0,0,0,0,0,0,0,0,0,0,0,0,0,0,0,0,0,0,0,0,0,0,0,0,0],"sum_hessian":[6.986E3,6.968E3,1.8E1,6.908E3,6E1,1.2E1,6E0,6.757E3,1.51E2,5E1,1E1,8E0,4E0,4E0,2E0,6.732E3,2.5E1,1.4E2,1.1E1,3.7E1,1.3E1,6E0,4E0,6E0,2E0,2E0,2E0,6.028E3,7.04E2,1.5E1,1E1,1E2,4E1,8E0,3E0,3.1E1,6E0,9E0,4E0,4E0,2E0,5E0,1E0,5.765E3,2.63E2,5.78E2,1.26E2,1.3E1,2E0,6E0,4E0,5.6E1,4.4E1,3.3E1,7E0,6E0,2E0,2.9E1,2E0,1E0,5E0,7E0,2E0],"tree_param":{"num_deleted":"0","num_feature":"6","num_nodes":"63","size_leaf_vector":"1"}},{"base_weights":[5.978885E-2,2.7311388E-3,2.098481E1,-5.0910402E-2,6.0782504E0,9.73429E0,7.774282E0,-6.54966E-2,1.4396007E0,2.536552E0,2.0328806E1,2.2111125E0,2.7347693E0,-7.3265955E-2,1.1648493E0,7.341516E-1,1.2366886E1,9.049445E-1,7.1107473E0,1.3161282E1,2.7731085E0,2.2434859E-1,5.345065E0,-9.7195745E-2,9.94754E-2,3.0541494E-1,2.9232907E0,1.6802248E-1,3.44659E0,5.126254E-1,1.7044392E0,4.880536E-1,2.6814537E0,3.4406254E-1,1.2294817E0,1.4085754E0,3.344986E-1,-1.5212974E-1,1.0280152E-1,2.1877404E-1,6.720702E-1,-1.0609092E-2,-2.289422E-3,-2.1996353E-2,6.339571E-2,-7.0500895E-2,5.357001E-2,1.7923073E-1,5.3026724E-1,-2.1978775E-2,7.002792E-2,5.562384E-1,1.9578691E-1,2.002309E-2,3.2035962E-1,3.2328168E-1,8.686974E-2,-1.8448574E-2,-8.174129E-3],"categories":[],"categories_nodes":[],"categories_segments":[],"categories_sizes":[],"default_left":[0,0,0,0,0,0,0,0,0,0,0,0,0,0,0,0,0,0,0,0,0,0,0,0,0,0,0,0,0,0,0,0,0,0,0,0,0,0,0,0,0,0,0,0,0,0,0,0,0,0,0,0,0,0,0,0,0,0,0],"id":28,"left_children":[1,3,5,7,9,11,-1,13,15,17,19,21,-1,23,25,27,29,31,33,35,-1,37,39,41,43,45,47,49,51,-1,-1,53,55,-1,-1,-1,-1,57,-1,-1,-1,-1,-1,-1,-1,-1,-1,-1,-1,-1,-1,-1,-1,-1,-1,-1,-1,-1,-1],"loss_changes":[8.341958E3,2.271508E3,1.1375814E4,1.5030206E2,3.0271763E3,2.1921802E3,0E0,6.549753E1,5.074E2,3.6672974E2,2.716958E2,7.9744354E1,0E0,2.8122723E1,6.409157E1,9.7698685E1,4.809851E1,2.6834505E1,2.0503833E2,2.5482544E1,0E0,2.8794591E0,7.013504E0,3.9459343E0,1.415074E2,7.358241E0,2.8170563E1,1.1300301E1,2.3757675E1,0E0,0E0,2.4369576E1,4.1880646E0,0E0,0E0,0E0,0E0,8.623153E-4,0E0,0E0,0E0,0E0,0E0,0E0,0E0,0E0,0E0,0E0,0E0,0E0,0E0,0E0,0E0,0E0,0E0,0E0,0E0,0E0,0E0],"parents":[2147483647,0,0,1,1,2,2,3,3,4,4,5,5,7,7,8,8,9,9,10,10,11,11,13,13,14,14,15,15,16,16,17,17,18,18,19,19,21,21,22,22,23,23,24,24,25,25,26,26,27,27,28,28,31,31,32,32,37,37],"right_children":[2,4,6,8,10,12,-1,14,16,18,20,22,-1,24,26,28,30,32,34,36,-1,38,40,42,44,46,48,50,52,-1,-1,54,56,-1,-1,-1,-1,58,-1,-1,-1,-1,-1,-1,-1,-1,-1,-1,-1,-1,-1,-1,-1,-1,-1,-1,-1,-1,-1],"split_conditions":[2.36E2,1.5007994E0,1.8409576E0,7.5E-1,7.4E1,2.5E-1,7.774282E0,4.042494E2,6.1E1,2E1,2.3903107E2,8.5189E-2,2.7347693E0,9.375E-2,1.787E1,2E1,1.2931035E-2,3.0695539E0,2E0,2.2741539E2,2.7731085E0,3.1375E-3,1.666665E-1,3.3E1,1.1E1,1.1E1,2.0620364E-1,2.8E2,1.0731708E0,5.126254E-1,1.7044392E0,1.784E3,2.652768E-2,3.4406254E-1,1.2294817E0,1.4085754E0,3.344986E-1,9.646128E-3,1.0280152E-1,2.1877404E-1,6.720702E-1,-1.0609092E-2,-2.289422E-3,-2.1996353E-2,6.339571E-2,-7.0500895E-2,5.357001E-2,1.7923073E-1,5.3026724E-1,-2.1978775E-2,7.002792E-2,5.562384E-1,1.9578691E-1,2.002309E-2,3.2035962E-1,3.2328168E-1,8.686974E-2,-1.8448574E-2,-8.174129E-3],"split_indices":[3,5,5,5,3,5,0,1,3,3,1,5,0,5,2,3,0,5,5,1,0,5,5,3,3,3,5,4,5,0,0,4,1,0,0,0,0,0,0,0,0,0,0,0,0,0,0,0,0,0,0,0,0,0,0,0,0,0,0],"split_type":[0,0,0,0,0,0,0,0,0,0,0,0,0,0,0,0,0,0,0,0,0,0,0,0,0,0,0,0,0,0,0,0,0,0,0,0,0,0,0,0,0,0,0,0,0,0,0,0,0,0,0,0,0,0,0,0,0,0,0],"sum_hessian":[6.986E3,6.968E3,1.8E1,6.908E3,6E1,1.6E1,2E0,6.842E3,6.6E1,4.9E1,1.1E1,1.2E1,4E0,6.8E3,4.2E1,6.3E1,3E0,3.7E1,1.2E1,7E0,4E0,8E0,4E0,5.973E3,8.27E2,2.9E1,1.3E1,5.3E1,1E1,2E0,1E0,3.1E1,6E0,8E0,4E0,6E0,1E0,6E0,2E0,2E0,2E0,5.334E3,6.39E2,5.18E2,3.09E2,5E0,2.4E1,1E1,3E0,3.1E1,2.2E1,3E0,7E0,2.9E1,2E0,4E0,2E0,3E0,3E0],"tree_param":{"num_deleted":"0","num_feature":"6","num_nodes":"59","size_leaf_vector":"1"}},{"base_weights":[5.6966484E-2,3.97597E-3,1.9490332E1,-4.5278296E-2,5.582562E0,8.978613E0,7.255996E0,-6.588964E-2,8.71411E-1,2.485386E0,1.943469E1,2.064388E0,2.5159876E0,-7.246931E-2,1.1312559E0,4.7387028E-1,1.0465923E1,8.3420086E-1,6.7896466E0,1.209079E1,2.5829213E0,4.6818006E-1,5.5388107E0,-8.783007E-2,8.326738E-2,5.5617326E-1,3.516442E0,-1.708121E-2,2.4721239E0,6.082239E-1,1.6192173E0,4.4988513E-1,2.4719012E0,3.8498902E0,1.1311231E0,6.236191E-1,1.7818192E0,-1.4072E-1,1.4167102E-1,6.272656E-1,1.6686383E-1,-1.0772264E-2,-3.597332E-3,-6.8704323E-3,9.297698E-2,-3.990047E-2,1.0300201E-1,4.0675956E-1,1.4257056E-1,-2.5496358E-2,5.851236E-2,1.8793479E-1,3.793243E-1,1.8087514E-2,2.9900235E-1,3.3859827E-2,2.7710187E-1,5.551575E-1,2.3275147E-1,-1.7064933E-2,-7.5610685E-3],"categories":[],"categories_nodes":[],"categories_segments":[],"categories_sizes":[],"default_left":[0,0,0,0,0,0,0,0,